1224 64
154 0.42580914 -0.0560722 0.23572126 0.060608193 0.33750975 -0.09004066 -0.22791624 0.10532768 -0.27263483 -0.3179862 0.003133771 -0.07830766 -0.10141323 0.030131388 0.13630958 -0.13206221 -0.20482707 0.053703353 0.32755765 -0.12887923 -0.020578442 -0.23841879 0.042187966 -0.29159918 -0.116475254 -0.08620406 0.093631 0.16346441 0.15123406 -0.059378 -0.24752115 -0.050192837 -0.034034174 -0.040970378 0.2110705 -0.20521115 0.16580194 0.04210853 0.5658205 0.10400882 -0.19829774 0.18907546 0.23982826 -0.21328184 0.3939108 -0.15387428 0.16234067 -0.049861986 -0.28326163 -0.07683623 -0.08131828 0.058638413 0.24529918 -0.104202054 -0.1341033 -0.17330252 -0.18328834 0.18902521 -0.29319492 0.39697585 0.037416574 -0.06661524 0.10354189 -0.24458694
854 0.33966604 0.061214518 0.13926545 0.14724594 0.3215499 -0.18198203 0.40780342 -0.38885635 -0.21653113 -0.095548555 0.16734621 -0.41923982 -0.46256533 -0.12911315 0.329467 -0.39879313 -0.08034765 -0.335709 0.3976889 -0.21545352 0.016242616 -0.2446983 0.31766927 0.2648744 0.12633707 0.18207209 -0.0016293484 -0.027796559 0.0877131 -0.14031732 0.113389544 0.36921853 0.41485232 -0.004421232 0.25352934 0.16953087 0.2888873 0.15573257 0.0943826 0.0736445 0.21766049 0.14039887 0.66565126 -0.46955043 -0.14986874 0.14433512 -0.0008553135 0.10495181 0.25783873 0.0920792 0.117273636 -0.12445515 -0.21116738 -0.39283007 -0.16008767 -0.10918568 0.70036554 0.19842301 0.05770693 -0.40141326 -0.3536689 0.39973363 -0.29938883 0.09295747
1050 -0.09347751 -0.011039457 0.18784897 -0.15821522 0.13877207 -0.016925437 -0.13872667 -0.14740781 -0.2953974 0.09203062 -0.13998796 -0.4386267 -0.018068979 -0.058692362 0.13737041 -0.20949127 0.04843933 -0.078657195 0.16379017 0.14171176 0.15776923 -0.084518485 -0.05334909 -0.032255955 0.16299115 0.07313196 0.23473918 0.11599791 0.016215855 0.3750951 0.0053830957 -0.0088517545 0.2395509 0.09529905 0.20179446 -0.20846067 -0.051656336 -0.07452603 0.024798011 0.20855771 0.109616786 -0.0039782207 0.050470255 0.022949422 0.037982136 0.09244927 0.11198495 -0.12083195 0.13458905 -0.34680295 0.012209057 -0.23807542 0.015348704 0.10105506 0.0971786 -0.17503344 0.37170708 -0.091637455 -0.25151762 0.107718565 -0.1897708 0.10839147 -0.17319576 0.10171142
640 0.28885224 -0.13588208 0.26823038 0.042622015 0.26562557 -0.19110537 -0.02213335 -0.019137617 -0.325999 -0.12729624 -0.17930104 -0.16153836 -0.049261663 -0.036973946 0.17295119 -0.23396182 -0.1140631 0.005978496 0.092681356 0.0072418978 0.09444827 -0.14632475 0.2395097 -0.19561014 -0.057553448 -0.1844191 -0.14563335 0.3011988 0.10703793 -0.12538466 -0.19900532 0.17641765 -0.121752284 0.10836033 0.08771926 -0.113592856 -0.032809317 -0.14327024 0.25091666 0.42807811 -0.12670636 0.1567766 0.26897675 -0.2105617 0.46382353 -0.24379821 0.029248677 0.07174089 -0.24809442 -0.32271966 0.020629564 0.023132842 0.044391423 0.24872679 -0.20131482 -0.19034544 -0.35434827 0.1165483 -0.19143066 0.5404057 -0.12805447 -0.18097472 0.10360462 -0.395068
54 0.56280386 -0.09717395 0.24818014 0.074377224 0.24571793 -0.05089773 -0.0823636 -0.13000683 -0.18876985 -0.1568635 -0.11417698 -0.22566642 -0.08124728 0.024104565 0.26661697 -0.07618055 -0.04938802 -0.06325298 0.32490608 0.17753907 -0.07653205 -0.14636023 0.031735003 -0.3619478 0.017423943 -0.32214147 0.17975524 0.21291147 0.051148195 -0.05338091 -0.16784272 -0.056397162 -0.21048115 -0.1723636 0.1076983 -0.017015718 0.0336152 0.073429964 0.15891176 0.27555367 -0.30463904 0.25033164 0.2306882 -0.3340296 0.47205412 -0.23009959 0.0945644 -0.027960952 -0.10144853 -0.063011296 0.0738365 0.024359556 0.11798427 0.050483968 -0.29849708 -0.057751596 -0.42572233 0.009742616 -0.24525984 0.2857604 -0.08205175 -0.14490812 0.01732382 -0.25703984
962 -0.10335906 0.31517002 0.13246386 -0.20141557 0.5022017 -0.041791696 -0.05489704 -0.55877405 -0.062574215 0.013700754 -0.118298166 -0.16789448 -0.07510714 0.219042 0.48253518 -0.5429107 0.110533856 0.019433364 0.37130618 0.3137729 -0.010883314 -0.06987257 -0.31065124 0.2752665 0.25638327 0.22028863 -0.012871557 -0.33387 0.060229417 0.33412987 0.36904436 0.13613735 0.09106449 -0.53511244 -0.028341062 -0.106914386 0.009126816 -0.19842622 0.17708392 0.21975285 0.23128122 0.21602382 0.56328225 0.07308107 0.24446103 -0.12797745 0.068184435 -0.17074539 0.38557243 -0.51461875 -0.057004575 -0.32895243 -0.03706535 -0.13106216 0.27403387 -0.21125641 0.57610714 0.34351552 -0.012433273 0.1674759 0.046166204 -0.0046739806 0.07293328 0.08856674
1244 0.16223115 -0.15867889 -0.03762267 0.037937507 0.24913009 0.18148664 -0.32918325 -0.09162315 -0.4847753 -0.17269433 -0.0057413816 -0.19508713 -0.043861844 0.121924296 0.014495373 -0.24239062 -0.34704927 -0.26235557 0.15024936 0.07724254 -0.27002135 -0.054601718 0.01807926 -0.23544846 0.039425485 0.070515536 0.06184354 -0.087722465 -0.031097375 0.040285867 0.054627776 0.17333497 0.45396045 0.033057958 0.2612861 -0.08332907 0.1537569 0.2576193 -0.016479224 0.18345669 0.387353 0.09120076 0.029785698 -0.07852471 0.09446484 0.04039519 0.2439789 -0.2972028 0.25643703 -0.31386665 0.0253083 -0.39334348 0.27628306 -0.1392188 -0.09650852 -0.44345412 0.44604778 -0.42905366 -0.13378444 0.06691825 -0.1146913 0.2250055 -0.3956 -0.011786418
1152 0.2748318 -0.043462273 0.12716055 -0.19847186 0.23226202 0.17999965 -0.36047402 -0.15902531 -0.08371713 -0.26285815 -0.29131454 -0.32976776 0.04471196 0.08356582 0.10986512 -0.24157564 -0.18722065 -0.24219565 0.14760686 0.2308955 -0.06968375 -0.097889185 0.051225957 -0.092380196 0.23228529 -0.012494146 0.004313247 0.043908946 0.050782043 0.25235492 0.16901107 0.17909315 0.5761353 0.24931258 0.17527881 0.16625474 -0.043682948 0.1503496 -0.16008425 0.20919749 -0.16933511 0.24090526 0.13866162 -0.14018987 -0.027690856 0.13991474 0.053586118 -0.23266023 0.25411177 -0.10683884 -0.19123326 -0.271229 0.21292208 -0.3084277 0.40040958 -0.20770098 0.4552803 -0.30661485 -0.2879408 -0.13294517 -0.31504577 -0.19667798 -0.40956303 0.02163274
728 0.3172365 -0.12734027 0.45597813 0.24850471 0.034070294 -0.15940958 -0.07274399 0.15354325 -0.23883155 -0.08364279 -0.10663303 0.038473494 -0.0012319015 -0.083525166 0.5502872 -0.34061673 -0.16578585 0.27442187 0.17937075 0.12841561 -0.15087667 -0.029509189 0.20463826 -0.29930094 -0.029326359 -0.12226705 -0.042100217 0.33195597 0.14984918 0.06955477 -0.105686724 0.11618845 0.04908287 0.08269355 0.32118812 0.14641033 0.24208614 0.22226539 0.12057935 0.34125844 0.21259747 0.051582158 -0.12946177 0.06558875 0.14568047 0.16905318 0.010067922 -0.11614988 -0.20492454 -0.05264723 0.015551713 0.22136718 0.107110076 0.44343475 0.019163107 0.063069604 -0.356787 -0.02535705 -0.04415673 0.45037535 -0.21597224 -0.04744687 0.038226455 -0.125739
1436 -0.028695118 0.023437163 -0.102051795 -0.4529887 0.3208275 -0.33838648 -0.44597813 -0.41831043 -0.45559046 -0.19343379 0.19195727 0.2193449 -0.11732103 0.003258184 0.16586895 0.049707353 0.0781329 -0.26436564 -0.12364604 0.3213793 0.18083051 0.096064664 -0.025983416 0.16595946 0.41500595 -0.34724364 0.115532644 0.33276024 0.1999802 0.21547408 -0.22567922 0.19219503 0.30582827 0.08144301 0.3208016 -0.035081785 0.5681169 0.09328729 -0.072333135 -0.12491723 0.29762426 -0.21961984 0.23715913 0.22277837 0.058032665 -0.056678675 -0.2457024 -0.47977468 0.15192692 -0.29176104 0.06413458 0.14039251 -0.0728063 -0.36972508 0.18686883 0.0449628 0.096171215 0.07898288 -0.20817383 0.01510918 -0.23728432 -0.01032446 -0.31975064 -0.00636272
1111 -0.038403157 -0.07194313 0.104318365 -0.16621038 0.2961847 -0.021382906 -0.24455185 -0.08455059 -0.4298104 -0.27854323 -0.15659164 -0.28444016 -0.2315688 0.004999314 0.03144262 -0.21138084 -0.2691874 0.03930893 0.11002238 0.56921166 -0.19929957 -0.11949496 -0.0351243 -0.14969432 0.20995967 0.04894226 0.16883598 0.13994546 0.21545696 -0.09280179 0.051357053 -0.087272376 0.23349957 0.040176485 0.19363 -0.12183686 -0.19188608 0.22291733 0.042960122 0.08826112 -0.08777869 0.027097588 0.24142474 0.09329094 -0.08994039 0.30853292 0.16493379 -0.13097821 0.077337705 -0.2018159 -0.21200979 -0.5048274 0.000497889 -0.27451086 0.043942995 -0.29799277 0.5658765 -0.08611399 -0.19783275 0.14830798 0.032962944 0.10870177 -0.2640418 0.30653548
1040 0.27312037 0.009345288 -0.14506881 -0.007596605 0.2585952 -0.07047097 -0.0033816078 -0.07024751 -0.2229687 -0.09776489 -0.25011632 -0.4155815 -0.048438862 -0.01768984 0.031758036 -0.30823374 -0.1573812 -0.09269327 0.42342225 0.26749888 0.15426351 -0.1860963 0.20968693 -0.08486775 0.31178352 0.08665348 0.15419704 0.27168888 0.13715181 0.13955061 0.022365691 -0.01445925 0.32953164 0.17903961 0.08306702 -0.17805725 0.12627988 0.38501403 -0.23333772 0.2541611 0.06175303 0.31968555 0.16718216 0.16764233 -0.075543575 0.32383475 -0.15149106 -0.05816923 0.25861913 -0.3099679 0.13104971 -0.20478328 0.039951216 0.120932825 0.025597485 -0.30875477 0.5284892 -0.13815847 -0.018147582 0.124148674 0.07308893 -0.114004396 -0.5135788 0.042447023
1478 -0.00027775337 -0.26841486 0.1225458 0.023709817 0.16014844 0.09425465 -0.25222203 -0.43612915 -0.30286142 -0.2035153 0.23344369 -0.4179118 -0.07151273 0.00095168594 0.17234391 -0.30674532 -0.09767955 -0.11256985 0.2629436 0.06726661 -0.12716524 0.027522027 -0.121876635 0.042069152 0.46529076 -0.07784015 -0.022063205 0.045475762 -0.12336258 -0.0102858925 -0.14065775 -0.017229794 0.52088964 0.05232242 0.39108837 0.023532681 0.4765982 0.186025 0.116599545 0.17410351 0.015207573 0.08330607 -0.11843023 -0.11881231 -0.1463848 -0.12314272 0.15323482 -0.22149101 -0.24580674 -0.1627195 0.32315794 -0.12503941 -0.031335026 -0.14046441 0.06786315 -0.14839026 0.6585388 -0.39539158 -0.11280837 -0.0580291 0.08858159 0.2377253 -0.30187753 0.38794625
1100 0.28650233 -0.09509426 -0.1718217 -0.08122632 0.4066955 0.16830178 -0.05055548 -0.058858454 -0.026784936 -0.25154155 -0.02462122 -0.18786255 -0.04109551 -0.24050683 0.31936467 -0.33879885 0.33225304 -0.28447574 0.22471663 -0.0757524 0.069863535 -0.11719724 0.473266 0.31076047 0.3933143 -0.01923392 0.4768304 -0.017833963 0.43988913 0.059827026 0.023189452 0.37672284 0.5396043 0.28501964 0.2406176 0.13435873 -0.08464107 0.07550141 -0.091538124 0.10613042 0.15350395 0.1086654 0.47119838 0.04015918 -0.10801972 0.20521888 0.045798518 -0.33884048 0.1635602 -0.27382028 0.13447642 -0.2568426 -0.057342704 -0.05076139 -0.028052704 0.13197121 0.5028795 -0.29232332 0.046146587 0.04746115 0.031294372 -0.11807678 0.0046975045 0.094436415
362 0.45424068 0.028926758 0.23110692 0.07786962 0.43252382 -0.11289956 0.3028821 0.008892078 -0.322192 0.01915566 0.18448067 0.014441855 0.10123801 0.13324846 0.20226592 -0.06838667 0.0031543965 -0.052230295 0.26324815 0.29234946 -0.07647915 -0.45604426 -0.18257347 -0.24266039 0.15405892 -0.15004393 0.5757383 0.11928275 -0.32723108 -0.30402705 -0.17706794 0.22287282 -0.11466717 -0.026992377 0.23258044 -0.20825829 0.011416312 0.22817802 0.4449276 0.09009095 -0.020647118 -0.048358295 0.30500376 -0.15130048 0.26263538 -0.5745919 0.005929728 -0.43887264 -0.16790819 -0.07230609 -0.23728521 0.37738398 -0.25378963 0.2577008 -0.2208921 0.13946049 -0.3466014 0.27592832 -0.070624426 0.35102454 0.25283882 -0.019018065 0.34616393 -0.17104168
322 -0.05688148 -0.23384012 0.49016348 -0.12806378 0.2185877 -0.0947571 -0.12005947 0.19328663 -0.14032929 -0.03330446 -0.16917846 0.11565281 -0.045789972 -0.045510773 0.33572745 -0.094168276 -0.36943346 -0.07645675 0.42201686 -0.03509569 0.2172808 -0.3815916 0.13039975 -0.50584763 0.018511705 -0.23503688 0.063949734 0.35336623 0.06911441 -0.085886575 -0.1771544 0.283998 -0.15189287 -0.07618136 0.42642838 -0.19181597 -0.26326653 0.06492375 0.1923811 -0.15793182 -0.25309283 0.09559147 -0.028873213 -0.19744518 0.29469746 -0.20878024 0.29707035 -0.2520649 -0.1241451 -0.36078244 -0.048092213 -0.09065607 0.10214592 0.4553546 0.18679062 -0.23280084 -0.40658116 0.1219432 -0.32779613 -0.093253784 -0.30503944 -0.051841915 0.46178874 -0.22447206
453 0.42424107 0.18211085 0.1337853 0.5590402 0.32639846 -0.39616686 -0.16315618 0.11049422 -0.31545237 0.1312974 0.05917321 -0.04096015 0.18669271 0.26366678 0.63798547 0.17294183 0.026295075 -0.15800762 0.29211858 0.44952834 0.26380175 -0.18500473 -0.1912524 -0.03659283 -0.23731935 -0.5715212 0.19918454 0.2999113 -0.23774718 0.11709422 -0.3272599 0.17453448 -0.42541525 0.5610792 0.38662028 -0.27489257 -0.088274665 0.37082198 0.08309732 -0.068460874 0.101293266 -0.33941612 0.81384903 0.055232394 -0.020752259 -0.2844937 -0.18302813 -0.3830212 -0.25428858 -0.39804065 -0.29787382 0.28373525 0.060203493 -0.37538838 0.04341587 0.23009148 -0.3313419 0.2367694 -0.10427688 0.116620585 -0.057013337 -0.18127015 -0.20981261 -0.08768603
641 0.40150192 -0.2041541 0.30477422 -0.0044607916 -0.027518542 -0.5774618 0.09487083 -0.32345214 -0.47847807 0.075177565 -0.10825691 -0.3607476 0.0061071203 0.16164957 0.17554598 -0.31829625 0.14644235 -0.1327138 0.35523772 0.0716681 0.10921872 -0.34497896 -0.16293621 0.010236783 -0.0662219 -0.13453236 0.26328376 0.33814153 -0.0095653245 0.036116872 -0.113585725 0.077946335 -0.30096164 0.09059838 0.36963198 -0.06814123 0.13601743 0.13490109 0.19251162 0.37633693 -0.1335778 -0.017028647 0.15998036 -0.18511975 0.26351008 -0.0675842 0.06381887 0.06973882 -0.32593387 -0.06546178 0.20987898 0.31825817 -0.10679205 0.073537715 -0.2033368 -0.13581103 -0.5119395 -0.22762583 0.33213738 0.114319764 0.10945167 0.021016212 0.30117315 -0.054512527
492 0.059630007 0.29012582 0.59499264 0.1304502 -0.13935548 -0.23164581 0.02750588 -0.04725281 -0.42656967 -0.24270442 -0.08623508 0.02959331 -0.06517652 0.18632111 0.54380554 -0.3304294 -0.08768701 -0.22722732 0.2857085 0.3110187 -0.24303101 -0.036656477 -0.08247396 -0.5294867 0.04500396 -0.30800086 0.22760536 -0.16184066 -0.04546128 -0.2277917 -0.24402447 0.09230031 -0.036115702 0.22810677 -0.009929854 -0.1042676 -0.11142364 0.06890684 0.21352887 0.5500793 0.08581877 0.1357023 0.06894008 0.118047364 0.22614682 -0.006130573 -0.17648385 -0.26986337 -0.042560358 0.0103938505 0.00733534 -0.057158515 0.0575661 0.18993364 -0.10243995 0.012073421 -0.76631606 0.0016934127 0.081038766 0.09424621 -0.025781458 -0.025469681 0.068426944 -0.34052458
797 -0.25443867 0.01987708 0.32450122 -0.3011958 0.15520805 0.007612042 0.28106877 -0.43710837 -0.3501519 -0.22490902 -0.36585075 -0.27667105 -0.31346592 -0.1528805 0.070168726 -0.21866716 -0.23158284 0.0075440453 0.14008994 -0.06769242 0.32109982 -0.050823838 -0.30414146 -0.1995238 0.54291576 -0.18297996 -0.0914085 0.13694789 0.23920256 0.12235855 0.12558357 0.060863838 0.035189815 -0.034943208 0.26403257 -0.31036657 -0.15346357 -0.17081062 0.06594304 0.15467295 0.3255094 0.21281013 0.043839954 -0.10329123 -0.029695556 -0.11519981 0.094500154 0.12129359 -0.422365 -0.64908296 0.08597304 0.14897333 0.385867 0.46022087 0.23204605 -0.12682518 0.18419038 0.07756069 -0.46664205 0.32644668 -0.07321039 0.041110944 -0.3489811 -0.25803813
179 0.2093761 -0.17045487 0.34777594 0.1068945 0.12864548 -0.14684269 -0.07409038 -0.020508416 -0.2624077 -0.0457009 -0.13011663 -0.057361312 -0.020822482 -0.046253964 0.2512973 0.0020861153 0.024407867 -0.09228787 0.28651747 0.2662103 -0.31552717 -0.45292208 -0.11676031 -0.32499576 0.2079381 -0.281909 0.14920883 0.4711044 -0.19802636 -0.035594605 -0.102671176 0.29531217 -0.04072821 0.073417075 0.12465307 -0.12029276 -0.12950683 0.1741388 0.20035912 0.31248975 -0.23552112 0.029279877 -0.0801547 -0.13207464 0.45615023 -0.1901769 -0.007275337 -0.27822495 -0.14887144 -0.21203233 0.16637185 0.18782626 0.1328923 0.17414914 -0.10347368 0.023798792 -0.6005446 -0.1317056 -0.2445394 0.06858062 0.036355767 -0.04289524 0.15567663 0.023723695
511 0.5032183 0.12245409 0.638558 0.62184906 0.2861688 0.0942555 0.053908512 -0.17107497 -0.2956822 0.086820625 -0.050425366 -0.31363317 -0.05021 0.44549137 0.14261228 -0.065034814 0.061213154 -0.007304985 0.28583688 0.46256593 0.14597669 -0.16637899 -0.15488245 -0.043794554 -0.10485961 -0.61258274 0.052779447 -0.057069857 -0.052804757 -0.11826424 0.06553614 0.29431564 0.005206137 0.21598962 0.24474405 -0.099661924 -0.087128274 0.115129024 0.4243854 -0.08089545 -0.3091045 0.033549692 -0.069873504 0.03947228 0.05555729 -0.29107764 -0.37695205 -0.19855712 0.1755694 -0.032278437 -0.0798846 -0.08449301 0.090541735 0.06046821 0.09122901 0.25810957 -0.39840057 0.07340012 -0.11593474 0.07787518 -0.110359006 0.11824139 0.20574144 -0.123148486
386 0.10058136 0.26649383 0.580103 -0.17559873 0.569773 -0.1844426 -0.09771653 -0.2300618 0.0074916338 0.07820394 0.010603519 0.10360461 -0.051717807 -0.00782289 0.31187028 0.24262625 0.310772 0.025086515 0.09386685 0.13402994 -0.032702763 0.1298526 -0.30484506 -0.14495534 0.23855966 -0.20711736 0.15795851 0.098354645 -0.16439332 -0.077184305 -0.14186993 0.27093235 0.042018045 0.26350343 0.42674917 -0.09987415 -0.10546739 0.37482488 0.10220683 0.22404361 0.050764915 0.068272375 -0.0433845 0.02560692 0.6024851 -0.37880844 -0.15958418 -0.2557253 -0.22605346 -0.346068 0.12610587 0.12001275 -0.23495843 0.086400114 -0.026311236 0.2867368 -0.52137 0.2070263 0.040379312 0.10262653 -0.017196352 0.08630592 0.111348234 0.06942685
1178 -0.12248056 -0.09871705 0.35676455 -0.4391783 0.07518261 -0.16891752 -0.0047401325 0.0095413225 -0.43048194 -0.17885324 0.06961147 -0.010221768 0.13907139 -0.18196627 0.30015638 -0.23098274 0.020715214 0.007076647 -0.008134446 0.09042657 -0.08638379 -0.0133217 0.07705835 0.09323193 0.2087569 -0.18172367 -0.050960876 0.19380756 -0.12675343 0.24352638 0.13041815 0.08474109 0.32568672 0.3202642 0.5748191 -0.32596624 -0.25261152 0.12554659 -0.007620183 0.09170747 0.3471019 -0.042150784 0.11379572 0.055348296 0.19325751 0.17568623 0.14715223 -0.03299076 -0.16470362 -0.06754108 -0.05850789 -0.56539804 0.03370464 0.45553532 0.4330086 -0.28606293 0.45498317 0.009550317 -0.08938129 0.030939234 -0.17914966 -0.14924842 -0.40991652 0.17083615
755 0.17089415 -0.071831115 0.51455027 0.4351901 0.07723396 0.0375339 0.14539003 0.09189445 -0.4673103 0.0075516286 -0.06430553 -0.4298444 0.19029216 -0.14366141 0.4124639 0.005768557 0.04663329 0.089491084 0.18786335 0.3441735 0.0887384 -0.2857086 0.27701268 -0.19431533 0.19977394 -0.20998192 0.2626291 0.2195221 0.12561359 0.3521049 -0.52737427 0.46369478 -0.010358912 -0.17591225 0.03777565 0.25508025 -0.056711707 -0.115389995 -0.13124949 0.36716345 0.1276822 -0.06557006 -0.031406287 0.022070186 0.201881 -0.11785689 0.07959474 -0.051062565 -0.113963366 -0.15472813 0.05687613 0.24472888 0.07635983 0.14672247 -0.09542002 0.09248189 -0.2918965 -0.091693565 -0.29745945 0.35428703 0.025314746 -0.21309742 -0.041904025 -0.34541345
877 0.035100013 -0.3660713 -0.1852646 0.037016064 0.1889289 -0.1017293 -0.35544297 -0.27171028 -0.1512168 -0.23031768 -0.03395462 -0.19251816 -0.094830014 0.00037634987 -0.066865295 -0.47949237 -0.23278783 -0.009775627 0.5538426 0.06028881 0.08348161 0.002754976 0.012987816 0.09863266 0.38098076 0.11420156 0.14101534 0.19396189 0.28337348 0.24317105 -0.026962047 0.19446331 0.6310909 0.115686595 0.1743699 -0.35756907 0.03786304 0.33480766 -0.071284115 0.0055181864 0.1314495 0.23460533 0.1140643 -0.2712203 -0.17990811 0.2666456 -0.048513703 -0.26218492 0.27680367 -0.15692846 0.0689004 -0.2922199 0.043589488 0.056890108 0.0024235947 -0.0028591412 0.2873826 -0.50050586 -0.099736154 0.19339539 -0.13829373 0.109564304 -0.32616556 0.14339013
1460 -0.072292686 -0.094224915 0.15697029 -0.06896601 0.16677998 -0.31258586 -0.11277865 -0.1386247 -0.13732366 0.27185875 -0.001414413 -0.40389803 -0.2924435 0.06702584 0.28841582 -0.27434433 0.03921186 0.014116504 0.11920383 0.42763448 0.1503805 0.14569257 0.062574826 -0.14785634 0.20336618 0.13466977 0.31081212 0.10503789 0.29910284 0.41169843 0.008490568 -0.059577107 0.23723704 0.3231718 0.36561128 -0.1315343 0.21485978 0.20955043 -0.17380218 0.1924811 0.09941223 0.066060476 0.16278578 -0.1418301 -0.022918565 0.18440448 0.1759886 -0.0779361 0.12142945 -0.098482154 -0.06388423 -0.17782977 -0.11086426 0.30330604 0.44383162 -0.30587292 0.23776689 -0.41713807 -0.07914929 0.077792965 0.054084323 -0.058641154 -0.04694594 -0.04031306
740 0.1517569 0.22557336 0.19383198 0.113248535 0.18089253 -0.0002886862 -0.26444378 -0.073077194 -0.29526013 -0.2762039 -0.27040166 0.100926265 0.23326665 0.52868307 0.48521742 -0.38854432 -0.09859469 -0.024066055 0.09019955 0.34206262 -0.04017426 0.5520296 0.20400019 -0.37249386 0.3019368 -0.0077352747 -0.06663285 0.49133807 -0.035043873 0.32073915 0.22546808 -0.25520748 -0.09626949 -0.18112057 0.22717603 -0.5958108 0.19736353 0.045457654 0.27160558 0.2434194 -0.23015605 0.37202245 0.08231573 -0.145148 0.21682441 -0.25936118 -0.20575304 0.001232608 -0.050106548 0.21311805 0.40024734 0.0849383 0.33131376 0.7104518 0.13903338 0.17653659 -0.05646995 0.17725466 -0.05437139 0.46739024 -0.31342208 -0.25294083 -0.11981803 0.2019797
879 -0.06557422 -0.018604355 0.059759427 0.081485696 0.6784478 0.13591532 -0.1811335 -0.22649181 -0.22571981 0.045089375 0.2273903 -0.3154654 -0.06947787 -0.017823135 0.26193556 -0.3376728 -0.030039296 -0.074588634 0.3077634 -0.26524618 0.33745554 0.35355324 0.28587523 0.09495923 0.44772413 -0.11806728 0.175411 0.12789273 0.24861386 0.17178379 0.050535027 0.04110784 0.39716667 0.28863615 0.109018475 0.07666452 0.08333172 0.2565818 0.049729194 0.43047145 0.12350506 0.42098624 -0.16022225 -0.42284948 -0.38083807 -0.03555061 0.052368775 -0.37321576 0.05115685 0.06297432 -0.039016783 0.2054465 -0.46303493 -0.1416704 -0.19646305 -0.16920026 0.35633743 -0.25145224 -0.07881411 0.08881107 0.22966194 0.095567994 0.3159156 0.091853194
143 0.259407 0.122025855 0.60474175 0.31043437 0.23458779 -0.0056989985 0.15334772 0.033318404 -0.29071087 -0.13669536 -0.052230116 0.0067893523 0.17078806 0.049903583 0.29014835 0.11920284 0.084750794 -0.16581574 0.2199138 0.32739374 -0.32826418 -0.38652456 -0.23228776 -0.32621506 0.111173086 -0.18331465 0.0022906247 0.20264141 -0.07182928 0.025057454 -0.37131056 0.20338938 -0.15060644 0.2562366 0.05447893 -0.3349169 -0.10088389 0.13219808 0.5286355 0.30543798 -0.19436297 0.1077925 0.25095806 -0.05827528 0.3503031 -0.24466993 -0.18951917 -0.30102134 -0.019857604 -0.18759319 0.21438697 -0.16828485 -0.17487478 0.23740777 -0.17856118 0.27649757 -0.500095 -0.09639958 -0.17944245 -0.07825043 -0.12034708 0.09659956 0.09971241 0.06724884
433 0.10953566 -0.19791937 0.4651034 0.27708104 0.018572185 -0.04130172 -0.024200775 0.020518683 -0.1295056 -0.3527488 -0.13019572 -0.17911494 -0.32419363 -0.038774088 0.09825552 -0.35547593 -0.463852 -0.36063668 0.030301975 -0.026741002 -0.03693177 -0.26682404 0.06630614 -0.29954872 0.15574643 -0.41075885 0.33166423 0.09853035 -0.19267863 -0.09386936 -0.25988215 0.3374976 0.016583623 -0.011266256 0.2603413 -0.46134192 0.13358705 0.37072676 0.036327288 0.26174676 -0.09836806 0.24358863 0.20955457 -0.15735215 0.5927844 -0.40228084 -0.28925484 -0.08337656 -0.3504346 0.010895704 -0.23593053 0.52935356 0.24795416 -0.22440122 -0.51357514 -0.23663595 -0.27811104 0.25213253 -0.25125694 0.37061197 0.0678625 -0.34642863 0.34769478 -0.16187748
98 0.21142016 0.024754506 0.6687165 0.24492241 0.26959231 -0.117456354 -0.34744745 -0.06539416 -0.413324 -0.05487755 -0.11238574 -0.09763507 0.14928527 0.037244223 0.24622755 0.05262523 0.003329718 0.09450512 0.522974 0.37067115 -0.31601787 -0.09627901 0.14232956 -0.1487167 -0.22573338 -0.43046784 0.19956811 0.31141233 -0.26900673 -0.103324644 -0.29572386 0.13237628 -0.099358745 0.2487758 0.25069934 -0.18808436 -0.07121255 0.37751058 0.12276678 0.041090377 -0.15043208 0.054561194 0.22118275 -0.122357026 0.17728034 -0.31674075 -0.13048074 -0.2851805 0.023962012 -0.047410145 -0.28034943 0.119805194 -0.06783242 0.266507 -0.2667794 0.18864833 -0.6770829 0.06854512 0.1314026 0.047769297 0.06614958 0.08575614 0.21318245 -0.27769595
999 -0.027253581 -0.111309476 -0.05753978 -0.4253363 0.4608996 0.21124715 0.07200535 -0.5337736 -0.36142707 -0.16454898 0.06497077 0.2022218 0.074088775 -0.20446084 0.652144 -0.17513509 -0.17073596 -0.5099382 0.25286403 0.20055036 0.4211598 -0.049544387 -0.10080876 0.026724555 0.47430295 -0.108187936 0.2182319 0.33216974 0.084145956 -0.05898953 0.25980836 0.10593768 0.3970287 0.15948632 0.28120053 -0.15453485 0.6287566 0.08561241 -0.024623465 -0.18780239 0.18753035 -0.030976268 0.14200413 -0.08186999 0.18134414 0.32544827 -0.19765444 -0.6952119 0.3743585 -0.06848081 -0.48747253 -0.05882861 -0.340115 -0.36985445 -0.11203388 -0.33365905 0.6482297 0.17024073 0.10789297 -0.34378678 -0.5252407 -0.07936515 -0.41689008 0.07888607
1305 0.09393845 -0.20496652 0.41071752 -0.04926289 0.52277625 0.06054696 -0.16425472 -0.4432645 -0.22208853 0.16483569 0.022916527 -0.30871138 -0.3101284 -0.18451197 0.45161474 -0.123297706 -0.3162006 0.13726465 0.15051357 0.029085234 -0.16495498 -0.04822001 -0.13549824 -0.40882337 -0.22389907 0.250365 0.29445973 0.16989613 0.033798616 0.2582036 0.2677863 0.37220296 0.2869729 0.1379292 -0.1217685 -0.10531441 0.12832938 -0.028499322 -0.11963274 0.17025512 0.20616013 0.010463024 0.1761156 -0.24504483 -0.3424104 0.31272513 -0.17682101 -0.39194065 0.14221938 0.09185615 -0.04670064 -0.44760683 -0.30742815 0.08496957 0.24582162 -0.16833134 0.7333057 -0.19793797 0.16837476 0.18496916 0.21462485 -0.2003178 -0.15500638 0.022540074
1208 -0.23381694 -0.19852868 0.4235681 -0.0445184 0.22352888 0.077708766 -0.15500031 -0.22819139 -0.115488075 -0.41840178 -0.03278509 -0.1927466 -0.14010476 -0.22325002 0.34246644 -0.36666664 -0.0910851 -0.336239 0.07031174 0.40794268 0.24573973 -0.07570587 0.013280885 0.0007466991 0.044010125 0.014005861 0.2728461 0.1566591 0.02059603 0.24639003 -0.07622625 0.20016146 0.27337945 0.33552688 -1.7336317e-05 -0.07270042 0.34149197 0.11995225 -0.03722164 0.24053639 -0.28169367 0.16097514 -0.23614825 -0.23491392 -0.4120515 -0.07912671 0.33187628 0.115081266 -0.029881349 -0.100879945 0.12166236 0.07648894 -0.04636328 0.23831369 0.0276829 -0.20637885 0.49419692 -0.49458888 0.17380285 0.0008093364 0.21046345 -0.03821739 0.024382714 0.18172848
534 0.057916973 0.23264232 0.47292447 0.09817981 0.17522837 -0.28585833 -0.06714632 -0.031917315 -0.29057175 0.05032716 -0.2046582 -0.29239205 0.020914389 0.20104946 0.341604 -0.12387266 0.10717785 -0.036179807 0.1312649 0.08072896 -0.038624592 -0.28740922 -0.15007822 -0.33925804 -0.09764296 -0.22807764 -0.16684356 0.1673494 -0.031830918 0.32683283 -0.14558755 0.2412058 0.025436616 0.26692885 0.2984093 -0.39752373 -0.01466249 0.014565901 -0.03949325 0.4728929 -0.051982284 0.22290647 0.06359553 -0.14303839 0.51091284 -0.13929795 -0.26118568 -0.14232494 -0.2240789 0.07097931 -0.30560014 -0.088417 -0.034670178 0.36051178 0.18819909 0.039971836 -0.34174225 0.11142688 0.20879796 0.44068667 -0.025570476 -0.13028654 0.037923794 -0.34646142
188 0.060672466 -0.17163384 0.49507326 0.110681176 0.19513457 -0.3833594 0.022531714 0.012467465 -0.3844386 -0.27736986 0.024852898 -0.10628051 0.2368307 0.043245964 0.14369664 -0.31564945 0.0073647327 -0.033952467 0.41475922 0.36238205 -0.1377427 -0.22916114 -0.010340675 -0.09699222 -0.3395074 -0.34419334 0.38499168 0.19691911 -0.14179757 0.047926508 -0.13312249 0.12170103 -0.15743203 0.14555535 0.2049399 0.103792846 -0.003612536 0.18441166 0.20665672 0.6044736 -0.1157104 -0.079206064 -0.06543305 0.04740348 0.59231776 -0.22326228 0.08752403 -0.0069740172 -0.0067701465 -0.12644477 -0.18819822 0.20216534 0.22528598 0.22368115 0.2038606 -0.1002892 -0.5832035 0.007933208 0.18627642 0.10510944 -0.25363955 0.085609704 -0.018578367 -0.07303328
643 0.24829288 -0.021218264 0.47377607 0.15436594 0.09255513 -0.09466513 -0.16093309 0.048930287 -0.51859176 -0.053128168 -0.11287411 -0.25644773 0.386172 0.15000086 0.30026117 -0.009732822 0.015871134 0.036431763 0.4506697 0.1981614 -0.18380299 -0.4321778 -0.043103453 -0.089354865 -0.1524834 -0.37168705 0.15020274 0.28786436 -0.035024308 0.12284649 0.0699476 0.290732 -0.12235921 0.14201906 0.19183366 -0.24119528 -0.3148702 0.20589724 0.18831928 0.21236023 -0.14717437 0.01471729 0.20785834 0.04717405 0.2842675 -0.26936135 -0.17906035 -0.26751474 -0.052368425 0.028392972 0.10271478 0.15471089 0.19109 0.19957566 0.27419147 -0.088167 -0.39365643 -0.10487568 0.06970653 0.009241631 0.03331064 -0.024818482 0.3173632 -0.12971142
482 -0.06558545 0.03170425 0.6064532 0.2558451 0.0180103 -0.21856217 -0.17923412 -0.41411644 -0.010780878 -0.18801029 -0.1507596 -0.019147383 -0.15437378 -0.18620355 0.04818085 -0.21887006 -0.023394894 -0.10675909 0.12806423 0.1851393 -0.7107458 -0.2627491 -0.036771797 -0.5888092 0.24909939 -0.4336728 0.34808835 0.091322824 0.47430018 0.09565778 -0.17559828 -0.2192319 -0.09173841 0.16926533 0.14147937 -0.11252022 -0.041668054 0.32627803 0.08952091 0.19175312 -0.37051064 -0.19431578 0.20334731 -0.3308824 0.2890561 -0.27175325 -0.045983907 0.04533766 0.1022631 0.13201542 0.17877856 0.11761453 0.31082347 -0.03311544 -0.0150855165 -0.1490734 -0.4497583 -0.280366 0.0056673256 0.041032743 -0.23348597 0.02943777 0.19796859 -0.040604137
1269 -0.075753935 0.15188287 0.2774895 -0.46902034 0.21071008 -0.056595143 0.01736915 0.13957036 -0.28544247 0.23628707 -0.16138214 -0.21396276 -0.49728182 0.23541784 -0.19673985 -0.41193208 -0.5633404 -0.1795545 0.23658828 0.03739472 0.11524341 0.10255401 0.3150571 -0.10190876 -0.026585454 -0.2012473 -0.10497429 -0.02171843 -0.08552279 0.37124208 0.04170606 0.45181552 0.59312564 -0.06385285 0.4536436 0.046099856 -0.15088247 0.44334486 0.0679616 0.05088179 0.44159377 0.4538194 0.105352215 0.1940953 0.38304976 -0.25801072 -0.24627714 0.079999544 0.475008 -0.14129673 -0.3253294 -0.18747707 0.01513138 0.03100489 0.0883179 -0.12029294 0.5385569 -0.016406434 -0.3869008 0.15028074 0.029797547 -0.036201045 -0.5227521 0.06906705
149 -0.27609673 -0.088444166 0.22607997 -0.39533564 0.12529075 -0.10591384 0.23922926 -0.06095129 -0.43982786 0.0022373502 0.0053539327 0.03221701 0.023808787 -0.010930858 0.46407434 0.004121956 -0.048444033 0.032106165 0.4568323 0.046601098 0.21477948 -0.35345635 -0.018359877 -0.4502513 -0.27621916 -0.4222321 0.15655991 0.5497039 0.033658892 0.12269313 -0.45815337 0.3786128 0.024969336 0.19408949 0.27165824 -0.1528741 -0.031087622 -0.015994823 0.045572557 0.18936126 0.17115432 0.12147347 -0.085498996 -0.1814504 -0.16505575 -0.28280807 0.3681927 -0.18051626 0.008375381 -0.049069088 -0.12224024 0.22326043 0.1856045 0.26847228 0.20858656 0.0784839 -0.4018392 0.00071889634 0.22701252 0.45601675 0.037085447 0.16683194 0.0443407 -0.35097197
1329 0.042157657 0.15741879 0.44118354 -0.50865805 0.3817907 -0.14432089 -0.579706 -0.5419627 -0.32116202 -0.16146758 0.07155364 -0.20181876 -0.21290755 -0.099915825 0.25455207 -0.063800655 -0.07774072 0.09095992 0.064906076 0.31239027 0.40626732 -0.3135705 -0.18005292 0.015182792 -0.21031049 0.05190488 0.12272371 0.26919258 0.0107227275 -0.14883824 0.2567644 0.17130768 0.58101285 0.020064484 0.056347888 -0.14817064 0.30154735 0.04095574 -0.16576867 0.29700235 0.1898585 0.35972255 0.021669524 0.17131603 0.044226993 -0.015137025 -0.1310134 -0.0016499726 0.029929124 -0.012668999 -0.30297932 -0.41086683 -0.2019851 0.30387956 0.09601771 0.0011730713 0.65062547 -0.21528184 -0.038690675 0.02542622 0.23323984 -0.023040887 -0.33050188 -0.12990345
71 0.3335187 0.016570995 0.57616985 0.016878806 0.43081266 -0.077142715 -0.17453702 0.05598978 -0.48192134 -0.108076036 0.030884832 -0.19691837 0.19828622 0.2491057 0.32629153 0.10859827 -0.10730884 0.09876432 0.14184812 0.24938418 -0.23236725 -0.29575393 -0.092075564 -0.18931149 0.019599464 -0.17775075 0.15738252 0.10616297 -0.12583742 0.1961818 -0.41978824 0.42329746 -0.29675806 0.15806396 0.010369626 -0.31994888 0.114003934 -0.04240292 0.20863241 0.4233889 -0.07372269 0.044646922 -0.11378788 -0.28980002 0.15420339 -0.2166649 -0.020839224 -0.36044 -0.034332275 0.055614885 -0.07524525 0.21627414 0.15626971 0.25965214 -0.13750446 -0.15465343 -0.5215607 0.13220762 0.10729911 0.14724244 -0.041209783 -0.006457652 0.101291515 -0.24552767
1462 -0.09605497 0.23723099 0.2625427 -0.24263032 -0.059849266 0.044807125 0.043384258 -0.15178044 -0.7283427 -0.14486107 0.19678748 -0.37410703 -0.20682593 0.08817825 0.48245695 -0.36197937 -0.2768 -0.002841271 0.102479875 0.062661454 0.3294035 0.16327944 -0.19110459 -0.16559874 -0.20889598 -0.100850746 0.31728336 0.29902282 0.070559286 0.32212165 0.040814754 0.067652 0.2809275 -0.09203766 0.36106002 -0.14894615 0.112470955 -0.2022148 -0.50237966 0.27484855 0.22779588 0.064067185 0.026043912 -0.011255755 -0.067407034 0.2513906 0.01579693 -0.029487288 0.20400174 -0.11577186 0.09332102 -0.044870496 0.3373491 0.41147226 0.086219355 0.23722613 0.10806856 -0.4276142 -0.14239503 0.31505176 0.26673543 0.2799681 -0.14102507 0.07094038
546 0.2248335 0.14850532 0.55703855 -0.30607447 0.28123164 -0.23719966 -0.07149021 0.27166703 -0.15540916 -0.30287793 -0.37134832 -0.20247053 0.16679895 0.22755036 0.14414556 -0.09863992 0.1567926 -0.18061873 0.29363412 0.47216406 -0.021049352 -0.21783541 0.019714195 -0.0148835685 -0.10375691 -0.309829 0.11421353 0.2798425 0.040637154 0.29294714 -0.08550165 0.27423412 0.019966798 0.13271278 0.4959247 -0.14809154 -0.17212668 0.07097004 0.27237773 0.2285805 -0.16405913 0.019918583 0.095732026 -0.028859878 0.1066478 0.20661174 -0.3045238 -0.15872106 -0.025185661 0.09898526 -0.08892171 0.25219923 0.08876327 0.20717485 -0.413773 -0.07888716 -0.5949596 -0.13862091 0.015695693 0.103906766 0.018146686 0.07041235 0.11768852 -0.19247587
761 0.14193095 0.010203549 0.06525152 -0.4791113 0.5182031 -0.162676 -0.24763373 -0.31728023 -0.32420528 -0.07398819 -0.1832507 -0.1291044 -0.009959248 -0.12301693 0.23216552 -0.31906512 0.09462484 -0.37740007 0.41391078 0.6131178 -0.09768472 0.285673 0.0050730933 -0.14120893 0.25038117 0.28227004 0.041581266 0.0807115 0.039468158 0.033899784 -0.075297475 -0.008395262 0.30132252 0.41015333 0.4716015 0.17579667 0.0009983083 -0.2816969 -0.41301358 0.43690476 0.07659008 0.24274817 0.41714564 0.025680538 -0.12229189 -0.1929809 -0.24356683 0.016772049 -0.0644752 0.14415018 0.29172748 -0.3940782 0.0015125627 -0.17341538 -0.21689828 -0.105321005 0.72331023 -0.065556996 -0.12786207 0.3043113 0.05976879 -0.2872031 0.25688982 0.17507394
855 0.27155045 0.24156831 0.21852839 -0.12153038 -0.25078225 -0.0804244 -0.1159811 -0.10953581 -0.37662083 0.05358809 0.089412436 -0.7000952 -0.44989437 0.2536929 0.29227054 -0.15001348 -0.28660542 0.17029272 0.26947993 0.14033762 -0.0068387277 0.08841889 0.24071251 0.17591469 0.46495345 0.007330765 0.2030887 0.10935634 0.08545064 0.11121855 0.061218515 0.27240813 0.17793524 0.42919058 -0.2048292 0.379626 0.24944158 0.06351759 0.27967915 0.03284061 -0.039435145 -0.18324037 -0.06719125 -0.39518064 -0.20253375 0.019136146 -0.027342997 -0.20699893 0.4651087 0.01737572 -0.25261945 -0.48219758 0.12001392 -0.046257343 -0.008134032 -0.2381403 0.24901354 -0.40607628 0.20345101 0.28753674 0.116876185 -0.3303817 -0.02930078 0.24537408
663 0.27371046 -0.1645538 0.34332752 0.063558705 0.21722646 -0.13361609 0.055218164 0.01848967 -0.07392469 -0.044889674 -0.20033863 -0.16629498 0.071831025 0.29371318 0.20155129 -0.12011252 -0.4299713 -0.052227266 0.40103573 0.046281178 0.08212196 -0.2423301 0.1902778 -0.25927442 -0.07801673 -0.49069038 0.2723826 0.30090928 0.3186163 -0.105208 -0.29142278 0.6120885 -0.20240147 0.11900999 0.1095275 -0.026245436 -0.14155814 0.6649552 0.21338822 0.20306535 -0.030903244 -0.008163349 -0.18775293 -0.1160455 0.708978 0.025757492 0.020510867 -0.15230873 0.087470844 0.03420141 -0.2662006 0.022336595 0.18408631 0.09797071 -0.39927077 -0.23867862 -0.3803471 0.30883908 0.16488351 -0.10041344 -0.13483739 -0.13775286 0.38479584 0.15528077
1383 -0.04128132 -0.11879752 0.14896403 -0.6323277 0.4480048 0.33315408 0.21773572 0.010890903 -0.23278534 0.01540018 0.09524408 -0.36298552 -0.266128 0.11229492 0.40881625 -0.09754595 -0.22789407 -0.219941 0.10694373 0.24107161 -0.27847177 -0.19608769 0.05376202 0.17773741 0.258591 0.44654176 0.40120316 0.08529623 0.1267016 0.31751817 -0.17810805 0.3559998 0.5110991 0.28320637 0.023760546 -0.029971948 0.12127565 -0.03952773 -0.09356829 0.22193125 -0.053283826 0.07775628 0.24132416 -0.2584089 -0.6326571 -0.10614348 -0.03302414 -0.057052616 0.3183994 -0.16122459 0.028959384 -0.76624507 0.031308923 -0.08660322 -0.045126535 0.04407951 0.42000407 0.19285427 -0.14675571 -0.17046829 -0.47918418 0.02160077 0.13345115 0.10380133
523 0.21444277 0.11537798 0.6816349 0.008519432 0.43014014 -0.28625923 0.043230187 -0.13237701 -0.30007014 0.18588974 0.0036134215 -0.072855726 -0.2860441 0.030891769 0.1256896 0.37540329 0.098213725 -0.12682386 0.18488988 0.24631631 -0.17022097 0.090105236 -0.10167128 -0.0783986 0.1458863 -0.27013993 0.08937951 0.18748361 -0.24126478 -0.23234203 0.087525696 0.17459546 -0.05312368 0.4958607 0.5260336 -0.12897146 -0.15460254 0.46989128 0.28944415 0.22560892 -0.00078516995 0.0050651566 0.031086737 -0.019908894 0.5320038 -0.333026 -0.08931142 -0.111775376 -0.34409255 -0.23885593 0.08761518 -0.012289832 -0.12915432 0.25847265 -0.030328335 0.24671333 -0.5427588 0.27789062 -0.012109365 -0.0048147836 -0.0007506433 0.020070275 0.09244927 -0.08953774
296 -0.114916846 -0.24331206 0.38424274 0.28950965 0.40230757 -0.13602795 -0.09457943 -0.21393135 -0.31419238 -0.14530103 -0.31370977 0.053081565 0.17489839 0.10082461 0.3697376 -0.053993743 0.030871002 -0.065839455 0.2935358 0.3061465 -0.26992336 -0.071549065 -0.041005354 -0.11135085 -0.1210951 -0.46474794 -0.005100926 0.3316866 0.059201874 0.056959692 -0.4534826 0.10953253 0.041254085 -0.00047479293 -0.084796675 0.15998863 0.25559783 -0.1957961 0.08441458 0.57250595 0.18905103 0.22223446 -0.16409272 -0.123282686 0.20232014 -0.14290804 0.44066206 -0.33220538 -0.08633432 -0.23838364 -0.15602854 0.3220742 -0.1351384 0.3161171 0.3133759 0.0835103 -0.49923033 -0.14144428 0.24401236 0.54695857 -0.08894848 0.006637194 0.121734545 -0.22443064
979 0.07876049 0.028996194 0.025207333 0.29826042 0.3744636 0.282988 -0.038554348 -0.60607374 -0.014557363 -0.7200532 -0.23082212 -0.18632866 -0.30050036 -0.26786196 0.27670807 -0.016581798 -0.16781741 -0.3220438 0.42017537 -0.46888852 0.104990385 0.13134341 0.5558007 0.22318296 0.3698262 0.055506863 0.4704172 0.35299602 0.29664 0.26700592 -0.09710539 0.0026416946 0.5103235 0.5198497 -0.07957335 -0.3548392 -0.04286151 0.22416916 -0.16638662 0.41580638 0.040672407 0.13865341 0.21914788 0.19477235 0.067688316 0.16199613 0.19098765 -0.048304085 0.60490704 -0.29295465 0.13413624 -0.049136274 -0.00051261164 -0.32468876 -0.0072482396 0.018862735 0.7119594 0.07597351 0.30976868 0.1402735 -0.042657506 0.06636267 -0.24062966 -0.10864854
513 -0.26432616 0.65358305 0.4644704 -0.37492564 0.06394198 -0.16791755 -0.112068236 -0.21133907 -0.2467553 -0.23922056 -0.6233973 0.17357907 -0.2624095 -0.13378663 -0.054312583 -0.65337986 0.14989768 0.070820324 -0.1263213 0.20227087 0.2558528 -0.3091314 0.2672912 -0.4174968 0.21277674 -0.2531796 0.3258531 0.3558127 -0.06897331 -0.037892077 -0.43480346 0.30280617 -0.13786432 0.058655877 0.18355297 -0.29668257 0.14748497 0.4134768 0.43872893 0.21996588 -0.27568787 -0.011633742 0.11525074 0.03967943 0.43208763 -0.16708633 -0.62140167 0.05139968 -0.43530703 0.19763412 0.17003383 -0.018391497 0.38175455 0.079559304 -0.07325914 0.14291146 -0.12839952 0.045553315 0.20532426 0.4101343 -0.1534943 0.0699823 0.1655461 -0.07344699
825 -0.00033845688 -0.3355458 0.013350057 -0.17429148 0.2889675 -0.02379563 -0.16940314 0.048119724 -0.73191917 0.1381193 -0.16420643 -0.33030733 -0.5091977 0.07603519 -0.24573828 -0.22631703 -0.38163954 -0.2872677 0.3470998 0.4158745 -0.07306163 0.10102111 0.16210903 -0.24454705 0.25158754 -0.1110931 0.40006587 0.3492735 0.09161623 -0.114729024 0.08140595 0.4341911 0.40312245 0.24611782 0.123711616 -0.19067249 0.40454882 -0.0652505 -0.27472308 -0.121780135 0.25227708 0.16941176 0.03635255 0.06411186 -0.17949031 0.29446796 -0.06651253 0.016423304 0.22962652 -0.15244725 0.08387072 -0.25300315 0.09410579 0.06290155 0.21352638 -0.1260579 0.53982 -0.19572558 -0.0025014256 0.2836252 0.27285323 -0.11142023 -0.32156816 0.26939005
934 0.18184942 -0.010387597 0.111851044 -0.32614508 0.2401813 0.08511176 0.1635077 0.064041354 -0.064427316 0.007223218 0.004316184 -0.66636616 -0.30251598 0.04729246 0.08884821 -0.28165615 0.25116482 -0.20550507 0.07193688 0.2587434 -0.014535497 0.35424903 0.17219716 -0.34813967 0.19443451 -0.22408777 0.11086909 0.13798842 0.30292204 0.42464384 -0.21791856 0.21536899 0.3916138 0.24730976 0.104128964 -0.32938728 0.002173835 0.2285225 -0.1028919 0.15590335 -0.0422953 0.23199558 0.2331069 0.06658152 -0.16672023 -0.065860905 -0.14531244 -0.025035892 0.21470657 0.12774517 -0.09008014 0.282481 -0.29231226 0.061759412 -0.23749432 0.09193694 0.41281787 -0.496964 0.40010732 0.2265526 0.09489895 -0.13128781 0.11715446 0.37375474
686 0.14598782 0.24350306 0.66176564 0.38698962 0.16203661 -0.29796827 0.14599991 -0.03847775 -0.3908816 -0.22600925 -0.100184366 -0.22014593 -0.052757572 0.026964705 0.43152386 -0.12881799 -0.04894908 0.036081985 0.366461 0.35143778 -0.062231965 -0.5200532 0.06671996 -0.009705682 -0.44559345 -0.015415285 -0.26627296 0.614159 0.13566867 -0.0034180966 -0.21969189 0.29972604 -0.03644624 0.31898946 0.43363288 0.028099185 -0.20843634 -0.35626304 0.2227712 0.0028026288 -0.09922759 -0.21844251 0.5212203 -0.23134354 0.4702583 -0.4197357 0.056598958 -0.058374643 -0.11199495 0.10560232 -0.12202261 0.49008322 0.110037565 0.102964565 0.1636043 -0.2003169 -0.58710176 0.03692005 -0.2685427 0.009017331 0.08003431 -0.087783106 0.16458832 0.032387514
918 -0.081363045 0.0913768 0.010964936 -0.19556484 0.17599271 0.1041458 -0.42870218 -0.3142743 -0.23407692 -0.013713328 -0.15698175 -0.11703533 -0.42323667 -0.37269467 0.4186508 -0.34569305 -0.2006528 -0.14942919 0.44711465 0.64311284 -0.13160376 0.25681826 -0.003152393 0.19532973 0.31913155 -0.16561738 0.3373873 -0.14954734 0.20215565 -0.18281215 0.2894043 0.2783915 0.16287448 0.5326445 -0.20097476 0.10956978 -0.061768852 -0.10082089 -0.039076574 0.15719509 0.06671297 -0.10553133 0.21517254 -0.35035813 0.2499771 -0.113782585 0.27169132 0.32591626 0.18866907 -0.554789 -0.17292295 -0.5920463 -0.11023718 0.081234485 -0.24576464 -0.053100694 0.47599027 -0.39922568 -0.26085716 -0.057413038 -0.2348822 -0.22945406 -0.25858375 0.22322986
1316 -0.1480434 -0.21213333 0.09596306 -0.07180611 0.41236782 -0.302879 0.14540723 0.038611922 -0.42635015 0.029766187 0.13726008 -0.19149272 -0.21592523 -0.17099294 -0.075810455 -0.22651336 -0.30729616 -0.31306908 0.30003196 0.5980956 0.034081448 0.24815068 0.030689994 -0.028676288 0.039480627 -0.0498754 0.094954655 0.15351507 0.18402654 0.26266202 0.094392344 -0.06282037 0.28641272 0.33572614 0.336461 -0.37368825 0.09239029 0.15136303 0.16826396 0.0046964665 -0.081458755 -0.07987732 0.08546712 -0.11154726 -0.6372781 0.30028713 -0.00073190377 -0.15606025 -0.044931863 -0.5262058 -0.124536105 -0.19074209 0.3021286 -0.010909907 0.20474654 -0.20204562 0.45142424 -0.38964945 -0.31957966 0.03656846 0.040284295 0.005293753 -0.11046423 -0.06868202
1190 0.23846367 -0.48679054 -0.15523031 -0.53147596 -0.0022738958 0.008745506 -0.38170698 -0.1224393 -0.32891166 0.26929215 -0.16448735 -0.47485474 -0.4236216 -0.28569248 0.8065277 -0.15367931 -0.13231473 0.10485284 0.1641118 0.14054038 -0.1164829 0.0068583926 -0.26061302 -0.04957318 0.17465615 0.043571115 0.5940812 0.050617985 0.061470408 -0.032824516 0.024169615 -0.5200882 0.58914316 0.1548874 0.31239107 -0.01141444 0.20931765 -0.16364348 0.115365185 0.35353136 0.31024066 0.040397897 0.077059485 -0.1581916 0.04193877 -0.21804455 0.06764073 -0.28209236 0.048220664 0.030776646 -0.06292607 -0.2509172 -0.16296129 -0.08666329 0.0363794 -0.16279517 0.43464187 -0.36998376 0.023853699 -0.07640781 -0.17185727 -0.07382469 0.06095899 -0.15380694
1054 0.051526196 0.13258067 0.19320978 -0.60745203 0.4769951 -0.16477315 -0.5978433 -0.077884905 -0.37048513 -0.25444642 0.16611637 -0.6343543 -0.41173875 0.44776955 -0.19713666 -0.403603 0.3262779 -0.15343556 0.035652943 0.21241318 -0.18105958 0.08769557 -0.08866396 -0.27207613 0.24469931 0.21483766 0.120237395 0.03809913 0.2075454 0.08907507 0.19218779 0.3575776 0.117700845 0.22473815 0.21626778 -0.2889303 0.20298581 -0.10116728 -0.0916969 -0.13885532 0.1652333 -0.48623213 0.167136 -0.053112093 -0.37248355 -0.1004549 -0.002006672 -0.0066949665 0.34701976 -0.6703674 -0.35078916 -0.5970153 0.048957773 0.24392948 -0.15912855 0.01100804 0.21981123 -0.14506623 0.09971603 0.05464203 -0.20838249 0.10749378 -0.19047537 0.16364329
753 0.31986672 -0.01472444 0.55276155 0.10432991 0.43227243 -0.31650925 -0.090461105 0.15337658 -0.507403 0.009580697 -0.12907839 -0.13464731 0.20696768 0.29897597 0.13080974 0.0024268313 0.2594418 -0.033942644 0.27545473 0.11077105 0.029366717 -0.346105 0.078531526 0.16982985 0.003029261 -0.2776383 0.16912626 0.1873842 0.036572047 0.24878132 0.019761262 -0.0453504 -0.012766531 0.1629764 0.298769 -0.31209058 0.08845241 0.07562126 0.25390375 0.21511142 -0.14254802 -0.14099759 -0.13154672 0.14297487 0.53335565 -0.48775515 0.13632177 -0.5595107 0.10633482 -0.043974306 0.10393925 0.31554046 -0.20103124 0.060536146 -0.04403286 0.36043215 -0.4801954 -0.19599594 0.09811601 -0.38650024 0.19813855 0.13096139 0.25548398 0.016768187
817 -0.15977195 -0.36326614 0.031475157 -0.20497659 0.1235303 -0.07528435 -0.059366483 -0.10952198 -0.34825444 -0.100124255 -0.1376623 -0.8811047 -0.274338 -0.217808 0.33454925 -0.15712608 -0.02765652 0.10581546 -0.04830875 0.08694081 -0.03246671 0.16675054 0.07510471 0.13002402 0.2745149 0.12064493 0.3840221 -0.08049692 0.15162489 0.10110354 0.13017045 0.043738455 0.43788528 0.5021438 -0.0041076853 0.048916597 0.081123844 0.6567917 0.31343335 0.25294763 0.14925635 -0.1328681 0.12662248 -0.051160842 -0.031328224 -0.021847002 0.26916012 0.025771739 0.10895383 0.38415828 -0.14712985 0.06719766 -0.04640918 0.5395213 0.03345101 -0.5240702 -0.15038832 -0.16424787 0.09474363 -0.07270983 0.0148414355 0.05907041 -0.104413986 -0.07795741
201 0.3652143 0.037453927 0.8813334 -0.083786175 0.48114827 -0.0076613426 -0.023939878 0.0061745574 -0.071046926 0.042911485 -0.08112511 0.11462599 0.17308326 0.11437667 0.36496255 0.16861159 0.044355 0.039783996 0.2763632 0.2990412 -0.09566001 -0.31932962 -0.15887462 -0.04841074 -0.05645313 -0.3885531 -0.020550776 0.2695545 0.015451551 0.041300077 0.03148247 0.23027821 0.060856536 0.19324596 0.1815694 -0.29322025 -0.20834054 0.16138801 0.2863835 0.024315465 -0.08334752 0.051316295 0.07783083 -0.23216069 0.41468972 -0.5580206 -0.020471387 -0.09288765 -0.0070545026 -0.26939452 -0.114215635 -0.20759079 0.15554588 0.3521043 -0.046079535 0.2060942 -0.45568702 0.038265273 0.17935051 -0.12026654 0.2468045 0.009517378 0.02436434 -0.063103594
491 0.37185922 -0.168643 0.24775851 0.13445853 0.060714528 -0.31973848 -0.12473129 -0.06812071 -0.03853686 -0.20921038 -0.18126476 -0.060065348 0.07108134 0.22150636 0.13654625 -0.11578486 -0.010423709 -0.19433372 0.24548545 0.46019042 -0.2836758 -0.27776644 -0.05638387 -0.036323585 -0.22294024 -0.4608844 -0.040421218 0.41192302 -0.07080979 -0.02341507 -0.32069537 0.28492692 0.24941419 0.13353138 0.22191036 -0.35979256 0.18982355 0.41513658 0.4532968 0.12974311 -0.27867103 0.06147909 0.09574225 -0.34613118 0.41435522 -0.42767674 0.18624178 -0.40805745 0.14581686 0.055535268 -0.40858945 0.28801635 0.19344798 0.30672732 -0.07014984 -0.022879975 -0.5853801 0.45016783 0.031712167 0.231909 0.0484657 0.3489319 0.11978828 -0.012451982
118 -0.16307054 -0.09744373 0.33598033 -0.025118822 0.0060428437 -0.25664264 -0.116490506 0.23795089 -0.5584824 0.06933418 0.11905908 -0.21355644 -0.24204952 0.025444778 0.18089297 -0.72287136 -0.04599534 -0.45722795 -0.55442894 0.78270745 0.017072052 -0.019950867 0.22136101 -0.48914644 0.14256506 0.196996 0.09985753 0.17854825 0.56527334 -0.27409777 -0.040409032 -0.05804457 0.30498436 0.6330812 -0.14087094 -0.3601744 0.0057123257 -0.023428753 0.07794557 -0.21887381 0.020098878 0.004111147 -0.09798965 0.030977426 0.07322636 -0.24745159 0.3296808 0.2312083 0.23208244 -0.34703735 0.21082032 0.2790257 -0.0052741743 0.084873594 0.22791399 -0.20906962 -0.09543307 -0.3533991 0.011449718 -0.074623846 0.023278795 0.165897 0.056103993 -0.26861
169 0.13553767 0.07985081 0.06863186 -0.2944745 0.69708586 0.22018108 -0.337903 0.11364089 -0.09266534 -0.15474637 -0.004020486 0.28387114 0.0064253705 -0.15199086 -0.027477425 -0.6273703 -0.28346556 0.45005715 0.50666755 0.07621411 -0.10938497 -0.30299503 -0.079748556 -0.30095908 0.20657173 -0.40193513 0.3076917 0.30048087 0.6941358 0.05601303 0.5228073 0.15218382 -0.16179845 -0.25322792 -0.13226923 -0.32581142 -0.2539155 0.1350309 0.8548804 -0.3119636 -0.055766825 -0.1311855 0.0023337486 -0.33561173 0.47388324 -0.8207115 -0.38978377 -0.20057727 -0.13354114 -0.029190682 0.33613858 -0.14673479 -0.042954125 -0.39941883 0.2130717 -0.18180537 0.17708391 0.15452893 -0.09996463 0.25184295 -0.15841797 -0.121649005 -0.042352315 0.3837898
39 0.3578448 0.05931639 0.5144573 0.173139 0.5917623 -0.41304538 0.011139706 0.08358182 -0.21966751 -0.20473722 -0.18778335 -0.019239267 -0.020775033 0.4241357 0.033908233 0.28534222 0.22881828 0.21374731 0.015266686 0.44735754 -0.22989593 -0.040465947 0.09959911 0.028135715 0.027221654 -0.48895422 0.106819116 -0.052104678 -0.033323903 -0.07568152 -0.30756986 0.3129095 0.11703026 0.20397632 0.19371766 -0.30324456 0.07282119 0.28447488 0.55987513 0.23280278 -0.33831838 0.028470166 -0.021846466 -0.12181341 0.6082372 -0.043280624 0.2676246 -0.4354559 0.15920368 0.13104449 -0.13271299 0.4831846 0.35610533 0.19832234 -0.0472227 0.80662817 -0.17075244 0.009714619 -0.00268756 -0.027828677 0.029452352 0.10763341 0.026655776 -0.05521074
74 0.41979286 -0.03993813 0.50798595 -0.023355199 0.31670278 -0.3994771 0.117404334 -0.11327358 -0.3321041 -0.28244752 0.15149891 -0.33258873 -0.14597224 0.2921465 0.17320329 -0.2646428 -0.1516294 0.08239524 0.1281983 0.29145235 -0.5548055 -0.3289188 0.14849186 -0.0837827 -0.28837287 -0.24570674 0.06448267 0.32399446 -0.6279886 -0.25412336 -0.023102656 0.12664048 0.0016847766 0.15147075 -0.036892302 -0.52727234 0.068104446 0.25470433 0.1961267 0.17990282 -0.14460985 0.42206573 -0.041430093 -0.30357504 0.21488462 0.13417393 0.072639175 -0.34362584 -0.27107877 -0.017998716 0.012150528 0.27492702 0.09688735 0.15156485 -0.25487286 0.42989588 -0.3714505 0.15261807 -0.16819179 0.23977822 0.047119092 0.11404062 0.48141992 -0.4817724
668 0.114895575 0.035551522 0.40640852 0.16208543 0.046493094 -0.28274179 0.044175304 -0.06440177 -0.4574349 -0.18596454 -0.36511078 -0.30579585 0.40678206 -0.057395145 0.21637413 -0.0079277735 0.0067929802 0.013103815 0.27139205 0.1552055 -0.028962139 0.16205044 -0.55377436 -0.24221377 0.14377576 -0.65411025 0.21576367 0.04947846 0.0674018 -0.059886627 -0.10911372 0.47347143 0.015883807 -0.0033219522 0.11566894 -0.24359763 -0.21524948 0.2069617 0.33781883 0.20979911 0.05616523 -0.12561586 -0.061133396 0.3710473 -0.31998238 -0.1599881 0.14791064 -0.0055713127 -0.018998578 -0.047791973 0.28848842 -0.104040824 -0.010394107 0.13455237 -0.06646899 -0.3982864 -0.5370728 -0.26041397 -0.13738458 0.33450487 -0.2871266 0.0005345028 0.07168489 -0.3221345
1477 0.06188753 -0.24766451 -0.027886992 0.16087122 0.241481 -0.15245825 -0.19316281 -0.17648163 -0.38319612 0.2000396 -0.031411637 -0.15856518 -0.42609006 0.16326405 0.20356362 -0.32125777 -0.15036318 0.08549093 0.10724548 0.84271795 0.43962404 0.098917395 0.092355765 -0.07297388 -0.07772804 -0.06932428 0.63046694 0.2848773 0.14772053 0.029669443 0.16567999 0.19794518 0.16056348 0.24990748 0.16071956 -0.06268242 0.38401237 -0.042201266 0.13534808 -0.1545703 0.2789889 0.18301696 -0.14700276 0.12220991 -0.44227016 -0.0030863506 0.19888324 0.033244424 0.28311196 -0.12607086 -0.18014607 -0.043431625 0.05810764 0.27048478 0.11658427 -0.09456395 0.012154514 -0.44005564 -0.0177525 0.38698065 0.25927544 -0.031858955 0.041099746 0.24869302
416 0.30029878 0.0014418949 0.4420004 0.19652173 0.30122915 -0.059944276 0.052272096 -0.16750002 -0.44022778 -0.21270524 0.11794588 -0.23538996 0.29132497 -0.041276783 0.40162206 0.14015874 -0.027739856 -0.16492406 0.35411683 0.26003796 -0.2697473 -0.29633737 -0.06829243 -0.26777822 0.00723994 -0.3189414 -0.09963866 0.2604496 0.14303035 0.15090945 0.025237428 0.33963954 -0.08483581 0.14041674 0.18865588 -0.32008278 -0.08141783 0.21391404 0.22082894 0.2939168 -0.33923417 0.059186056 0.077465646 0.368009 0.17754272 -0.16841726 0.09521661 -0.06280091 -0.03704092 -0.16907905 0.047526363 0.36128816 0.3198398 0.25261137 -0.14633042 0.04408002 -0.45101327 0.015484721 0.21487884 0.07025013 -0.14023954 -0.061339516 0.3077507 -0.20615059
780 -0.1609893 0.3782631 0.22986676 -0.43589556 -0.036783334 0.1336071 -0.31577373 0.119483665 -0.011468964 0.29774892 0.047580548 -0.4720656 -0.18616523 -0.14615065 0.32964417 -0.19050886 -0.29079327 -0.19908926 0.35509297 0.21492171 0.034457292 0.15051039 0.21756224 0.58229387 0.2412017 -0.108892225 0.5414577 0.24638656 0.40543517 0.08248569 -0.019729447 0.41800687 0.32522127 0.4882358 -0.11337753 -0.1358724 -0.047321748 -0.20015332 0.54183334 0.5435242 0.12050233 0.19823863 -0.14845534 -0.029776383 -0.3246885 0.051143985 0.11373535 -0.22717783 0.29318896 -0.27129543 -0.10206071 -0.15017845 -0.38365185 0.012219316 0.34386906 0.0903731 0.46742478 -0.2919455 0.19482933 -0.01335785 0.014895266 0.2678377 0.081484325 -0.27000865
940 -0.17517826 -0.21341106 0.16912286 0.115374215 0.42670727 -0.3094075 -0.3232849 -0.24350163 -0.39547172 0.32549718 -0.12065183 -0.31682864 -0.45455816 -0.07936991 0.23009644 -0.45341748 0.11934261 -0.23162447 0.31107622 0.18288644 0.33126917 0.010720078 0.27112815 0.116922416 0.21516351 0.6329513 0.4139781 0.32174563 0.085272945 -0.22451337 -0.33784074 0.22566046 0.35011983 0.2237024 0.28479403 0.2665432 0.26573494 0.047043256 0.13379128 -0.044617042 0.29928586 -0.21637326 -0.3445238 -0.022108432 -0.18928447 0.21355294 0.44627386 -0.18849258 0.15563704 -0.08998403 0.23114902 -0.16777763 0.026114197 0.43126273 -0.14831156 0.06170751 0.48019853 -0.051600996 -0.15413554 -0.06704194 0.1254799 -0.44473 0.12456533 -0.051485
404 -0.06344162 -0.06564741 0.3696893 -0.14144914 -0.0431152 -0.3371847 -0.010298225 -0.080510326 -0.4338437 -0.027867302 -0.2821933 -0.0735682 0.030657174 -0.10778442 0.47143042 0.019278819 0.060654957 -0.053429198 0.6054599 0.26794937 -0.24219427 0.05867108 -0.07385423 -0.12127363 -0.21845303 -0.30392316 0.26220688 0.3960023 0.06301229 -0.04223507 -0.23741806 0.38600552 0.0062053762 0.03303154 0.2627192 -0.18148999 -0.20248346 0.040661164 0.03781584 0.121425815 -0.09180482 -0.056122545 -0.04061387 -0.028765382 0.005397418 -0.12399273 0.32443407 -0.27224907 -0.1045562 0.025237413 -0.13519885 0.5066742 0.047968492 0.07188863 0.23266095 -0.06165504 -0.5298153 0.2048203 0.20349313 0.31708091 -0.1601022 0.18292892 0.24039298 -0.4402848
117 0.30365038 0.049296126 0.42679504 0.40766963 0.114426225 -0.11883043 -0.3402945 0.064041786 -0.5554615 -0.21812288 0.0911975 -0.19567344 0.4195975 0.12997663 0.35634887 0.231133 0.1948504 0.13865052 0.51205915 0.416321 -0.007018347 -0.4703502 0.021270338 -0.32805052 0.013269719 -0.4257056 0.19601437 0.52253217 -0.126198 -0.15516655 -0.01721161 0.246757 -0.12127608 0.116119675 0.2562455 -0.2446323 -0.039257 0.22229433 0.29729655 0.07332225 0.23208934 0.062800586 0.057637602 -0.12212427 0.23155452 -0.29839772 0.06754327 -0.39731443 0.124929726 0.063617416 0.08961116 0.02936787 0.14007717 0.4614035 -0.13582666 0.18261582 -0.4216834 0.22697635 0.2603139 0.025196511 -0.06861168 -0.02390557 0.13393141 -0.056740258
55 0.38548967 -0.029030396 0.25058788 0.44425192 0.3593894 -0.18115309 0.10859121 -0.18807505 -0.4708937 -0.29713944 0.029773774 -0.092616074 0.09264069 -0.02655463 0.25644955 0.020962302 0.1344608 -0.20005012 0.33566424 0.46842617 -0.19706105 -0.25599325 -0.27250728 -0.08410653 -0.14180376 -0.48601627 0.19775546 0.13446894 -0.26148084 -0.068281546 -0.07479162 0.2323107 -0.07276854 0.2955009 0.26884848 -0.44000447 -0.2697171 0.1681941 0.28780127 0.110450156 0.003419677 0.15175422 -0.062057007 -0.12394227 0.2706992 -0.41245455 -0.16791531 -0.35607064 -0.067106195 -0.11809807 0.07473974 0.06251227 0.061616704 0.43602312 0.09969066 0.18140002 -0.48907876 -0.1291725 0.014957942 0.16755399 0.0485329 0.07701155 0.5563917 -0.1899627
1222 0.0059781405 -0.14937645 0.37040928 -0.28447524 -0.024463376 -0.17954493 -0.015095354 -0.04908904 -0.28310925 0.078692615 -0.30782703 -0.35539922 -0.2172024 0.20501225 0.27180684 -0.0941861 -0.06768838 0.07987015 -0.16550559 0.21228561 0.14405383 0.18045993 0.057802144 -0.48748022 -0.122767255 -0.0062275995 0.36986002 -0.15117997 0.27788866 0.14824677 -0.18032259 0.003947815 0.4912892 0.2677352 0.23431052 -0.077797115 0.16908695 0.19219552 0.015555376 0.3090889 0.33106333 -0.03748146 -0.07332466 -0.24879782 -0.2939187 -0.15288681 0.5647522 -0.027083067 0.10040971 -0.20296673 -0.046893474 -0.10973601 -0.104194276 0.30786642 0.21659023 -0.4450364 0.3275668 -0.34262788 0.065256335 0.15720262 0.016108086 -0.10846706 0.035589557 0.30453303
834 0.010615422 -0.2193897 0.15424421 0.044710137 0.055230603 -0.30310246 -0.1612795 -0.2836394 -0.17825222 0.1310159 -0.19655441 -0.6972618 -0.2665926 -0.16359188 0.13207786 0.040533572 -0.20631054 -0.08086786 -0.08332532 0.45822003 0.2987952 0.47272068 0.54005516 0.5213004 0.1387855 -0.004501262 0.35899213 0.2775641 0.023641637 0.38301167 -0.2587938 0.3201341 0.18010865 0.114142045 0.15896273 0.14515927 0.16995189 0.29281023 -0.071399756 0.33957818 -0.20023192 -0.04916947 0.36026132 -0.050138444 -0.20604092 -0.0595314 0.1728281 0.0073378603 0.5215815 -0.41718784 0.049659427 -0.37001386 -0.28212857 0.12790783 -0.06676486 -0.1906163 0.4588644 -0.08498769 -0.064323 0.32170716 -0.0036614165 0.014651697 0.042207897 0.14850755
891 0.029890522 0.28747016 -0.08964101 0.3373359 0.31585452 -0.05304037 -0.2566279 0.0024939503 -0.6318323 0.024274265 0.048234027 -0.41950026 -0.13419299 0.22135185 -0.005303007 -0.59174573 0.15577747 0.13234597 0.16118333 0.029942732 -0.14871785 0.011743564 0.11834847 -0.30432913 0.46914968 0.13809894 0.3291668 -0.03393453 0.12496613 0.10862986 0.073749125 0.21248354 0.61088973 0.32408965 0.09092537 0.1398862 0.3470581 0.08865886 0.33017424 -0.040127542 0.0057726474 -0.287502 -0.086314216 -0.0143202 -0.44862935 0.115236565 -0.13447571 -0.12948062 0.07185522 -0.8104614 -0.20089878 -0.44879824 0.10116034 -0.18060738 0.08369195 -0.3818039 0.65126944 -0.035010874 -0.09575243 -0.111807294 0.06659507 -0.11081551 0.37812772 -0.015205733
899 0.018362585 0.15080051 0.10985216 -0.4538282 0.3760533 0.17929384 0.416956 -0.3030391 0.10336039 0.081360154 -0.16005453 -0.15932149 0.1666416 -0.019594751 0.10919487 -0.5312541 -0.04423468 -0.22144656 0.20463131 0.19527271 0.0018488885 0.10013487 0.062270045 -0.26991582 0.05299331 -0.13278154 0.5166403 0.12290072 0.4019683 -0.08009304 -0.033250622 0.21196184 0.6833253 0.4856925 0.3508903 0.45684934 0.16141169 0.0013555093 -0.039541826 0.17697722 0.10164461 0.17321561 -0.30900207 -0.02408065 -0.22521053 0.076757215 0.14139508 -0.21231 0.24712774 -0.42018127 0.2751911 -0.09443345 0.045911282 -0.2639378 0.044872854 -0.09001785 0.36004248 -0.30031693 -0.13801667 0.2664612 0.14508371 0.101492174 0.16092667 -0.02845918
1231 0.1588717 0.16818643 0.34987435 0.20219775 0.21510628 0.18989265 -0.3970697 -0.16929944 -0.37106946 0.33743232 -0.34300852 -0.25439554 -0.39065686 -0.028056765 0.0965271 -0.60263383 0.033624943 0.18301292 0.13581409 0.36025724 -0.057522662 -0.2351311 0.43907827 -0.028249009 -0.07405686 0.16612385 0.114416406 -0.16774076 0.36943012 0.014719467 0.22703044 0.15223758 0.6038041 0.17543216 0.3233164 -0.13706917 -0.15328981 0.50301415 -0.6296485 0.010787783 0.5509572 -0.08040827 0.3055215 0.06735524 0.20679574 -0.18995345 -0.35751256 -0.29568887 0.07076326 -0.0014473357 -0.21364053 0.00506643 0.05560936 0.042121504 -0.18870597 -0.15503582 0.592533 -0.31840166 -0.2543201 -0.025074743 -0.36581624 0.31136072 -0.220083 0.32012412
1134 0.00778507 0.21463136 0.1559092 -0.19613093 0.054208227 0.059489265 -0.08476999 -0.06377576 -0.3128383 0.31320342 -0.20560391 -0.42757893 -0.14759862 -0.26564494 0.2523243 -0.15498818 -0.19363356 -0.13189495 -0.10684464 0.4741208 -0.19519617 0.16839658 0.06952272 0.11582825 0.3417054 -0.11348403 0.1059581 -0.06828469 0.6203762 0.009454764 0.16325426 0.3950556 0.7219314 0.45492443 0.44261962 -0.024189794 0.2845678 0.11174431 -0.3623486 -0.1969896 -0.2050156 0.20409739 0.086474515 -0.2876808 -0.34424242 0.15541723 0.08103342 -0.54306865 0.12853165 -0.045580104 0.27240047 -0.19019519 -0.15255265 -0.11582045 0.25012654 -0.02677278 0.2937966 0.03808644 0.19575587 0.20539743 0.23773679 -0.3044186 -0.025243653 0.09377193
1047 -0.015011449 -0.295203 0.21934606 -0.05324994 -0.021830697 -0.26024643 -0.5670365 -0.34530234 -0.055307526 0.20223139 0.05073932 -0.38340345 0.07204555 0.08188636 -0.008553158 -0.6686532 0.013751065 -0.20768814 0.32773522 0.4574937 -0.10764667 0.06836502 -0.33790606 0.013677881 0.49174964 0.13964558 0.2233687 0.17119998 -0.24563761 -0.18896292 -0.047719236 0.12386844 0.47387367 0.24681757 0.11801765 -0.06219598 0.17460498 0.1846492 -0.17457192 0.2856156 0.0772157 0.02879455 0.026365465 -0.06936696 -0.13261028 0.06287207 -0.12261482 -0.36694783 -0.14615554 -0.06542815 0.30187282 -0.27184877 0.1010677 0.18682878 -0.16478415 0.10296447 0.6324591 -0.5227155 -0.12652229 0.10838621 -0.098228805 0.23468465 0.0597655 0.26107627
209 0.27713746 0.051467896 0.61651504 0.12254866 0.09142876 -0.0751912 0.2806736 0.008635313 -0.25873035 0.2646786 -0.12924834 -0.36773413 -0.11423157 -0.03305578 0.13837336 -0.22868603 -0.2881418 -0.12910545 0.14258285 -0.015224802 -0.1276921 0.1682027 0.26576856 -0.6517787 0.274882 -0.17318426 -0.062996484 0.10091379 -0.016710138 0.023365902 -0.4457694 0.64588857 -0.09263312 -0.10118827 0.08370004 -0.36376572 -0.30475178 -0.05350246 0.7435232 0.013899345 -0.36223176 0.14712411 -0.40130833 -0.18752685 0.43613607 -0.036856778 -0.24737452 -0.1931438 -0.22090736 -0.20675702 -0.57456595 0.24987018 0.25256523 0.13102905 -0.10537582 0.30188754 -0.16128922 0.050285097 -0.005214219 0.51621294 -0.4591683 -0.27346602 0.015356857 -0.30642956
995 0.102165624 0.38806525 0.35075235 0.10609921 -0.006599432 -0.56692284 0.35449854 -0.4494459 -0.65933967 0.37495708 0.7306768 -0.22179413 -0.4493438 -0.04901796 0.247102 -0.43653888 0.017946051 -0.16790308 -0.25022662 0.1138073 -0.32332972 0.21833485 -0.25224015 -0.0471454 0.052631542 -0.34033912 0.56299996 0.0342562 0.41928175 0.2724953 0.17376819 0.11127609 0.2601132 -0.18574269 -0.29538342 0.38900813 -0.1128211 -0.115802586 0.58628815 -0.13362418 -0.37493098 0.4966311 0.8520255 -0.55886644 -0.13479666 0.562749 0.19603772 -0.40254697 0.46093208 0.14492711 0.1032373 -0.2231346 -0.08305922 -0.16606632 -0.76626444 0.14950623 0.47517613 0.021165896 -0.18190803 0.022693517 -0.45835498 0.3555968 -0.5585796 -0.0656957
617 0.18014877 0.020372547 0.4184221 0.30835226 0.3682856 -0.2266627 0.099880524 -0.1033272 -0.44560868 -0.2156788 0.01112129 -0.13026531 0.28434557 0.1353677 0.3070016 0.11056802 -0.05996139 -0.065524474 0.30557105 0.529071 -0.29962948 -0.5266349 -0.1444893 -0.35183528 -0.08621244 -0.14085473 -0.005006767 -0.017228635 -0.12018422 -0.15205455 -0.097029276 0.44598746 0.015519689 0.28603262 0.10393954 -0.5310607 0.14881149 0.2810573 0.39057294 0.09749492 -0.19636679 0.23386309 -0.1211289 -0.0766823 0.40763158 -0.25979617 -0.24992217 -0.2966898 -0.062028084 0.101906106 -0.08576333 -0.124952964 -0.093433805 0.6465122 -0.0701686 -0.014517322 -0.42315876 0.15659933 0.18647894 -0.12697332 0.055086907 -0.02734086 0.33288524 -0.20501027
978 -0.4629863 0.1864839 0.088960186 0.33475593 0.56263965 -0.051033866 -0.21875708 0.42455167 -0.4567712 -0.4094127 -0.60340464 -0.6487612 0.013754821 0.105713904 1.0213515 0.08753931 0.41885108 -0.4258751 -0.0878288 -0.5673804 -0.23390132 0.24157453 -0.20076244 -0.12386833 -0.034703888 0.2810487 0.5228822 0.7481803 0.25174612 -0.476933 0.23175678 -0.22848476 -0.10716321 0.42426106 0.03304064 0.32504284 -0.10286062 0.34024385 0.281693 -0.22746247 0.06377783 0.6235171 -0.46781695 0.0945857 0.33469653 0.291037 -0.067257814 0.009316314 -0.0068843984 -0.28236258 -0.3549191 -0.09846837 -0.66966337 -0.5162038 0.57374895 0.41648895 0.13873169 0.15406573 -0.24044953 0.01154176 -0.20221788 0.6038155 -0.61657965 0.851116
1044 0.042772867 -0.21411127 0.20403029 -0.27418032 0.120555446 -0.111087725 -0.40022328 -0.17644386 -0.035007935 0.04826073 0.049929637 -0.26086414 -0.035597827 -0.48232532 0.63682723 -0.003884985 -0.13655707 -0.32292187 0.13359396 0.33305472 0.101232216 -0.12882133 -0.21422333 -0.056376003 0.14347328 0.003756976 0.4813597 0.26703742 0.062763534 -0.06166791 0.2556781 -0.06448252 0.5150535 0.031552587 -0.033996295 -0.25757128 0.47902763 0.10541237 -0.19657521 0.10805757 0.3351468 0.23406015 0.01793215 -0.3517459 0.46977833 0.23187952 -0.20230447 -0.51729053 0.19119494 -0.06899334 -0.5813604 -0.5988002 0.0036735223 0.19785611 0.17298512 -0.06983939 0.78012043 -0.030733353 0.19366796 -0.35515112 -0.083539724 0.033119205 -0.38360718 0.20924923
725 0.1466299 0.025486179 0.4588368 0.12546134 0.24182971 -0.28039816 0.009966108 -0.42770225 -0.41288757 -0.026318286 -0.12881374 0.06073991 0.2031247 0.042072523 0.2127784 0.08496834 -0.15167661 -0.07075873 0.13351522 0.124744944 -0.3760019 -0.22164208 0.0037584617 0.16675806 0.1425047 -0.2688008 0.29126203 0.31551668 0.0013531371 -0.041210365 -0.16002865 0.2821721 0.023666289 0.07416499 0.4198192 -0.22680536 -0.03792116 0.17832948 0.3875136 0.22619687 -0.118785635 -0.0427159 -0.009034559 0.15728271 0.36940935 -0.22938557 0.023744386 -0.57233316 -0.10000886 -0.19685398 -0.16130145 0.16123848 0.1401674 0.18864255 -0.058124352 0.2297483 -0.7384814 0.083284505 0.23477685 0.15894274 0.3778417 0.15506671 0.32466194 -0.015866766
22 0.6085045 -0.47144058 0.41402376 0.08807732 0.20013133 0.3475052 0.4618554 -0.27737743 -0.121761985 0.041180063 -0.17677467 -0.12506974 0.09626496 0.045310188 0.2732766 0.113365375 0.19127914 0.03710589 0.57600754 -0.005968941 -0.041437257 0.13033526 -0.44336164 -0.18897432 0.18370748 -0.23122907 0.47429052 -0.026678544 -0.26263347 -0.20024227 -0.40341377 -0.019821392 -0.22862913 -0.032717243 0.1733064 -0.38257 -0.11897809 -0.060263056 0.21704243 0.067522 -0.475906 0.16616875 0.2514454 -0.062105175 0.6856384 -0.57671773 0.24186435 -0.5303648 -0.50834495 -0.24277678 0.33795902 -0.058143638 -0.08705572 -0.039398614 -0.1138637 -0.21833141 -0.17561081 -0.23088783 -0.19460505 0.40485668 -0.019636111 -0.0023653144 -0.0030432378 0.29599786
989 0.16889952 -0.00821251 0.11129847 -0.06498626 0.52903825 -0.11737646 -0.30329296 -0.42168057 -0.53122926 -0.16935085 0.17148246 -0.34300208 -0.019673748 0.16565932 -0.079115316 -0.12542789 0.09982153 0.35653773 0.67208725 0.44704062 0.23452291 0.042445328 -0.2021198 0.3997858 0.17089742 0.14864765 0.16118644 -0.0077167125 -0.28380305 0.27745098 0.15383919 0.13328452 0.2260296 0.25427434 0.2467424 0.17329146 -0.12823549 0.07867285 -0.39237723 0.2788316 -0.35198477 0.78395724 -0.13864113 0.40282553 0.16892749 0.12140443 0.064120226 0.3027922 0.41171798 -0.19090612 0.27424744 -0.21715629 -0.49149212 -0.8051633 0.6276139 -0.47911033 -0.08179144 0.25649717 -0.10753866 0.5772701 -0.539438 -0.05578905 -0.44745868 0.15120706
171 0.036554094 0.15144178 0.30099103 -0.13784485 0.18816747 -0.4618726 0.16979255 -0.18824595 -0.54287624 -0.15758567 -0.17310064 -0.24138276 0.042936627 0.004210048 0.37832865 -0.410613 -0.20893502 0.13822189 0.26650122 0.088801906 -0.34507874 -0.49001735 0.1676324 -0.01918999 -0.33744133 -0.15064743 0.012573564 0.59824896 -0.06864729 -0.34769204 -0.3114 0.28102568 -0.33772987 0.23108923 0.14781171 -0.5416108 -0.08951017 0.21670043 0.06258269 0.0491503 -0.13693674 -0.18084855 -0.3668466 -0.30560717 0.30869818 -0.1946796 -0.11400702 -0.13008778 0.2230139 0.17916086 -0.045119498 0.023144683 0.34689772 -0.20141287 0.14074515 0.2789721 -0.37974218 0.42599255 -0.15285435 0.4211138 0.03354772 0.56355155 0.44122753 -0.4637807
569 -0.053028967 -0.11119735 0.36387998 0.26088038 0.035131633 -0.11704336 0.0955976 -0.0044707917 -0.8205255 -0.17161077 -0.21476692 -0.12475881 0.3881065 0.04669431 0.6282699 -0.07706288 0.03211252 -0.028268881 0.18621606 0.28697887 -0.27926692 -0.4533112 -0.18116687 -0.04006203 -0.13671927 -0.43260798 0.20696007 0.066969335 -0.33121082 -0.08696462 0.0196333 0.2889034 -0.06031968 0.042868882 0.2769461 -0.38394633 -0.42064664 -0.040149607 0.30635825 0.35662538 -0.11815496 -0.08992862 0.11669328 -0.0674084 0.42502338 -0.30372015 -0.23063645 -0.18006691 -0.06230879 -0.08709543 0.061312966 -0.17186996 -0.09680994 0.20125388 -0.12528768 0.047133345 -0.6316098 -0.15003103 0.022488263 -0.10285638 -0.097510554 0.11963093 0.26670572 0.025034312
955 -0.25645927 -0.05198707 0.13890526 -0.055531252 0.3027539 -0.061693195 -0.43048942 0.057859767 -0.1507372 0.34338486 -0.15085058 -0.03995499 -0.17754324 0.10095323 0.35459265 -0.047931153 0.18490589 0.10180985 0.66174364 0.042641044 -0.42632043 -0.1875909 0.23693553 -0.49120116 0.12280446 0.09367369 0.59028286 0.5314135 -0.100605816 -0.035832576 -0.027161451 0.12390166 0.45907012 0.25487432 0.21460672 0.44172055 0.14752312 0.3373698 -0.12639819 -0.059063595 0.17445049 0.039090864 0.23992121 -0.0755544 -0.25038207 -0.09423419 0.4725559 -0.14393444 0.4289155 0.1047882 0.3072939 -0.16496491 -0.44176167 0.010778574 0.32799402 0.3364726 0.836561 0.16842891 -0.14170335 0.3273644 -0.17451763 -0.33889627 0.13633545 -0.13244343
1426 -0.07828894 0.00013962189 0.2340114 -0.1714908 0.10830849 -0.6532989 0.11700812 -0.23542885 -0.045252502 -0.08339431 0.0042055873 -0.26968667 -0.35933605 -0.170629 0.5848346 -0.06819187 0.046477336 0.028748207 0.22237934 0.36853474 -0.1312812 0.114301465 0.31788093 -0.058686864 0.28515813 -0.2847935 0.23634179 0.28503433 0.11351384 0.27301183 0.19581018 -0.22018358 0.10813672 0.1418259 0.024188694 0.35394067 0.21285126 0.07730008 0.10226027 0.1466866 0.21002275 0.19407907 -0.23024854 -0.1290971 -0.387486 -0.20131767 0.39304283 -0.32786372 0.30817002 -0.064501405 0.17152193 -0.27992338 -0.06914497 0.11757341 -0.25365898 0.018160356 0.17082164 -0.262971 -0.2530117 -0.05965242 0.10137198 0.08941931 0.044856083 0.043720838
567 0.5319445 0.21435077 0.4880707 0.28330275 0.77861667 -0.3620578 -0.31796914 0.0011410164 0.4190791 -0.49202135 -0.24850994 -0.09991616 0.07468796 0.061887518 0.08430081 -0.0050112484 -0.4639707 -0.48423684 0.12770125 -0.26903322 -0.30668676 -0.023455294 -0.14070429 -0.01718991 -0.11885081 -0.24652457 0.8030958 0.059686758 0.15890417 -0.5376422 -0.27926448 0.28648484 -0.26761305 -0.12738727 0.48301485 -0.08511879 -0.035100512 0.3067211 0.28683838 0.3117478 -0.14978845 0.41380763 0.5232355 -0.08258081 0.29304773 -0.3188694 0.30170923 0.016808324 -0.64252067 -0.10116708 -0.16659932 -0.07412474 0.08115468 0.3650925 0.0014754614 0.09267199 -0.3411794 0.3721251 -0.3771556 0.10639314 0.2519184 -0.47816366 0.24182416 0.27613842
467 0.25152078 -0.17520683 0.5600963 -0.09109699 0.4173895 -0.06130971 -0.2280579 -0.15339747 -0.41452348 -0.08724995 -0.123139754 -0.22517574 0.35619456 -0.09261352 0.2344983 0.2292395 -0.14609076 -0.12265014 0.3174426 0.251939 -0.12760855 -0.08441665 -0.2349977 -0.28666773 0.07434214 -0.4624685 0.019917164 0.22839487 -0.19978248 -0.205155 -0.22315682 0.5019043 0.14383353 0.11379935 -0.12744164 -0.22206877 -0.09171396 0.37035227 0.015152544 0.36952344 0.010056825 0.105970964 0.020378402 -0.22578114 0.20456196 -0.12458483 -0.069567695 0.16948536 -0.21869199 -0.1587719 -0.048075546 0.12763177 0.4148541 0.22984871 0.18309875 0.40328145 -0.42131892 -0.12472697 0.035227135 -0.42465845 0.27989462 -0.09802041 0.16995326 -0.1767106
774 -0.028383436 0.23639295 0.06504152 0.14527632 0.50378 0.34505042 0.0388791 -0.015574055 -0.07496371 -0.27449456 0.1480768 -0.37572518 -0.29634467 -0.15364377 0.6723135 -0.3440616 -0.45127475 -0.36561215 0.23021819 0.5847122 0.0779115 0.13466504 0.2962378 -0.06778267 0.48175895 0.21475506 0.08692749 0.18436588 0.11736981 -0.30585614 0.6183867 0.35874486 0.34015325 0.40371808 -0.16036746 0.3419207 0.7428805 -0.09292005 0.15627351 0.3403445 -0.10792683 -0.10362573 0.13270544 0.04344011 0.081970744 -0.3319334 0.2667755 -0.26333192 0.32206607 -0.006881606 0.08453008 -0.25692698 -0.2141628 -0.5193724 -0.27690822 -0.32829294 0.59699184 0.2474828 0.25839984 0.024048885 -0.3803763 -0.086425416 -0.057156786 0.22466497
1184 0.014004602 -0.06741209 0.33102822 -0.29533857 0.6139346 0.16918719 0.019643702 -0.36580265 -0.21029267 0.3220283 -0.29104778 -0.5731091 -0.18444301 0.20887776 -0.27676067 -0.043935154 -0.13061868 0.018880961 -0.04831625 0.14262214 0.024118042 0.1394321 0.19686925 0.3591245 0.122777194 0.22403163 0.017846746 0.13899766 0.27234572 0.0042857067 -0.24597871 0.31862786 0.3334065 0.47022656 0.4852953 -0.06212642 0.10919734 0.2471137 -0.13222612 0.30579305 -0.03415327 0.031785205 0.020351076 -0.22531843 -0.16406222 -0.30563352 0.061908092 0.064918034 0.01220451 -0.5936357 -0.049881343 -0.17567034 -0.15761967 0.035286877 -0.11738167 -0.17941499 0.8602022 -0.24294074 -0.0018543006 -0.20733525 -0.2462979 -0.025712246 0.31721386 0.24255672
300 0.05419818 -0.027825616 0.42419356 -0.1230967 0.12499291 0.052100565 -0.139819 0.08363717 -0.4118898 -0.045894053 -0.04998216 0.063503 0.16968186 0.05160988 0.51497155 0.09264503 0.18151715 -0.15871339 0.38095236 0.22666806 -0.33876726 -0.44185427 0.17891793 -0.40322062 0.4236611 0.04790019 0.29972413 0.49287945 -0.23039453 -0.110797666 -0.19596742 0.24424173 0.2584652 -0.15274544 0.36742175 -0.24357933 -0.30844745 0.040895864 0.4806616 -0.12683146 -0.065979466 0.3766656 0.49485865 0.570767 0.16249283 -0.03575656 0.20166244 -0.071798086 -0.2574335 -0.06551241 0.0129983565 -0.1648177 0.49977058 0.14124301 0.3603651 0.11968801 -0.6397832 0.2683364 -0.03151379 0.22898455 0.017943857 -0.37320298 0.50401896 -0.26559246
538 -0.080163255 -0.22615145 0.20116934 -0.14672257 0.28429884 -0.28092122 -0.010505151 -0.096221246 0.13060193 0.21024214 -0.17019297 -0.40128866 -0.118584365 -0.18293194 -0.042816367 -0.20073767 0.07968941 -0.2767823 0.41559455 0.5485778 0.1884078 -0.14297342 -0.034845833 -0.4187825 0.31034395 -0.39560315 0.5489162 -0.15572345 0.041720577 -0.2311854 -0.33178374 -0.12905155 0.35839605 -0.04574551 -0.15576454 0.0057604737 -0.20119856 0.3575061 -0.022235049 0.118128285 0.038352404 0.05548656 -0.29450262 -0.1804541 -0.073925436 0.5440989 0.65476865 -0.4367816 -0.11877676 0.08986739 0.39437392 0.069196925 -0.08642708 0.35098076 0.15253362 -0.19480132 0.25643176 -0.09396097 0.05133093 0.48367462 -0.17563626 -0.28551626 -0.18859817 0.5313277
603 0.15113834 -0.15834354 0.4511849 0.30757818 0.52223474 -0.44315624 0.16082865 -0.009975799 -0.5114454 0.0016669044 0.147573 -0.18928187 0.086015016 0.3221731 0.17871684 0.5421576 -0.14341682 -0.037813324 0.53702086 0.08232986 -0.053528156 -0.2864133 -0.43999642 0.05470199 0.01976496 -0.28195456 -0.13265033 0.009291084 -0.037832122 -0.25084287 -0.39783844 0.5537883 0.06485107 -0.003564063 0.61529374 -0.16986512 -0.18458535 0.23865092 0.382148 0.27145696 -0.49149734 0.16622274 0.22958893 0.10274316 0.15124977 -0.12142886 0.23907967 -0.0621518 -0.2670111 -0.120461114 0.14146036 0.13422392 0.37142807 0.39569038 -0.04231157 0.29697782 -0.3204385 0.1908855 -0.031458765 -0.04069197 -0.15607649 -0.23478475 0.271518 -0.03615098
1163 0.013475653 0.28271824 -0.03030057 -0.19981965 0.29030386 -0.2880687 0.057884086 -0.2183234 -0.25570217 -0.109979734 0.048806805 -0.45535427 -0.38831228 -0.21113077 -0.24718879 0.038135428 -0.13391367 -0.043932665 0.7813649 0.20161775 0.13381924 -0.11870193 0.18077542 0.08726514 0.22930367 0.52939826 0.24293779 0.40153456 0.28804505 -0.058268957 0.08273603 -0.36011878 0.7670225 0.40889254 0.23198314 -0.45748755 0.22814551 0.1606873 0.21678203 0.40047818 -0.025420057 -0.15517108 0.28245735 -0.21999699 -0.15022106 -0.09822758 0.26692894 0.027194234 0.22231174 -0.08754357 -0.5685364 -0.3936444 0.12576813 -0.19188881 -0.26896313 -0.05770239 0.3700013 -0.31665954 0.5994472 0.18247388 0.13437027 -0.18726319 -0.22522172 0.14460343
459 0.33553973 -0.042533934 0.62295127 0.21954748 0.22757016 -0.38013405 -0.016882274 0.16640258 -0.19173607 0.0600474 -0.25469372 -0.13268457 0.2318233 0.11556339 0.09745481 -0.019951489 0.038646583 0.066917405 0.18634397 0.14278202 -0.22924918 -0.18505502 -0.20557399 -0.22009504 0.18345378 -0.42819858 0.37167215 0.4324528 -0.08223618 0.13723807 -0.091363505 0.32464463 0.14248343 0.063586295 0.28604436 -0.30146208 0.085041314 0.25010064 0.19273444 0.13677889 -0.0761492 0.2347505 -0.32142743 -0.02558294 0.3199044 -0.31242758 0.24154618 -0.19370669 0.088519886 -0.021668803 -0.027557632 0.10149492 0.21789417 0.23710652 -0.17956722 0.16422907 -0.55003786 0.17792839 0.19900888 0.20844296 0.027139097 -0.09934216 0.113177404 -0.28039566
935 -0.46489763 -0.20689285 0.29193056 0.08625719 0.27338248 -0.25039187 0.16458632 -0.1872691 -0.48858556 0.2774827 -0.19945136 -0.08788879 -0.19131239 0.03738783 0.25098625 -0.2746401 -0.48729938 -0.1343508 -0.020141343 0.047560245 0.28717297 0.079756655 0.034149002 -0.3273645 -0.1069048 -0.23781227 -0.11699012 0.2823407 0.23989742 0.12469951 -0.05006322 0.09039844 0.34486985 0.10486259 0.12022165 -0.18557979 -0.00801473 0.107054226 -0.09114249 0.55493 0.06378052 0.14150116 0.051430736 -0.015091877 -0.47215223 -0.07554827 0.26572517 0.0325856 -0.07588635 -0.20480852 0.011009025 -0.025602246 0.06438652 0.6299975 0.1431456 -0.049651343 -0.012004003 -0.10998061 -0.06731349 0.38346812 0.22112216 0.16485038 0.04774303 0.024290787
153 0.049397703 -0.119031474 -0.0022599907 0.087912336 0.14868593 -0.13290264 0.120678164 0.16165164 -0.6551603 -0.20056273 0.05374597 -0.2871076 0.043082908 0.035752956 0.25043902 -0.20106946 -0.031194426 -0.20287164 0.35715744 0.13174109 0.26654735 -0.29962495 -0.29561532 -0.25642884 -0.04358132 -0.120099254 -0.0051189414 0.74297476 0.18216754 0.22864686 -0.31822783 0.6567945 -0.29117748 0.022671174 0.35469443 0.056321934 -0.25032067 -0.05625263 -0.0048332554 0.22571865 -0.33870384 0.10953625 0.031648517 -0.061035536 0.53689176 -0.37340608 -0.17996278 -0.5476382 -0.05332144 -0.20790164 0.23296204 0.33403152 0.03304391 0.18253951 0.16997771 -0.16970116 -0.7458517 -0.049506135 0.09049445 0.19629805 -0.24076958 -0.08198013 -0.0132998545 -0.094005354
190 0.3206208 -0.58681786 0.43947506 0.02667134 0.45074904 -0.3075586 -0.069745176 0.035598837 -0.27613735 -0.26443675 -0.085628636 -0.009455962 -0.13453168 0.3120736 0.22588757 0.06869331 0.11469739 -0.038983174 -0.02518203 -0.25376794 -0.64603895 -0.36466336 0.07244277 0.08045858 0.19298966 -0.8815119 -0.10241287 0.20677175 0.07376542 -0.26408094 -0.3722669 0.026022658 0.17936699 0.28812417 0.10108635 -0.1330665 0.18003543 0.08581055 0.3421082 0.28654924 -0.24651624 0.14759795 0.015564677 -0.07625243 0.46104774 -0.027170165 -0.20144553 -0.17787167 -0.03498772 -0.41587284 0.18585272 -0.19749786 0.37889823 0.04850989 -0.25750118 -0.039861258 -0.6130409 -0.008163644 -0.16260312 -0.43997568 0.16179045 0.20221685 0.1677536 -0.04321877
1230 0.08676385 -0.303475 0.47786307 0.093486615 0.72678405 0.25475428 -0.012118019 -0.3629021 -0.22764714 -0.1414662 0.10440238 -0.3826396 -0.49764565 -0.26140255 0.08760926 -0.5275894 0.17118865 0.10792399 -0.09822607 -0.3333321 0.3597287 0.07361765 0.12300704 0.14434104 -0.12524977 -0.10464371 0.11076634 0.32044134 0.19248664 0.2930139 -0.48989853 0.2639657 0.32471636 0.635651 0.07253385 0.35673606 0.29924905 0.28952095 -0.12991571 0.30972448 0.35618308 0.2364462 0.066464886 -0.2923426 -0.52229875 -0.23235238 0.37801486 -0.2957453 -0.27613917 0.35339224 0.29334354 -0.53699017 -0.2540778 0.043029048 0.17127918 -0.09639739 0.17837527 -0.090595104 0.3465647 0.0007992998 -0.18844295 0.3051194 -0.010806344 0.35706726
1245 -0.026967732 0.08123967 0.076002456 -0.26429123 0.17769663 0.16675009 0.15921764 -0.09554088 -0.013493111 -0.21925193 -0.3450527 -0.38076323 -0.14691177 -0.2880903 0.01502267 -0.3743624 0.0012102161 0.11474992 0.09981533 0.5139466 -0.019746708 0.10470269 0.2039326 -0.22780181 -0.048562776 0.3052442 -0.09748175 0.071050175 0.6552774 -0.036613107 -0.32332668 0.18731293 0.52576953 0.41022253 0.48457047 0.044574834 0.18437824 0.3344453 -0.20301358 -0.026582919 0.19943476 0.21663041 0.13276522 -0.03974141 -0.0030172565 -0.067144215 0.1851711 -0.27897996 0.28963777 -0.32214254 -0.088573426 -0.04289494 0.45119756 0.18011104 0.21097575 -0.05237162 0.41654634 0.040388897 0.0012043497 -0.10434523 -0.11896479 0.16927224 0.18704565 0.24242258
562 0.17142409 -0.19269438 0.6260704 0.18421477 0.17167133 -0.2164791 0.14866385 0.17481118 -0.5313099 -0.21780983 -0.42512447 -0.0067686373 0.1451556 -0.07417776 0.38826245 0.05292889 -0.18477018 0.18262708 0.3054029 0.2375164 -0.13789436 -0.42319378 -0.21681252 -0.1838781 0.038475804 -0.5824677 0.24017178 0.48190826 -0.19712271 0.23290367 -0.08895305 0.029605068 -0.02723773 0.18960553 0.29092622 0.067273274 -0.26999754 0.17768458 0.0624001 0.009181106 0.068335146 0.03427644 0.32257634 0.079178125 0.19105728 -0.4319067 -0.14221184 -0.46528807 -0.061055735 -0.1728316 0.04322839 -0.0015401852 0.035709873 0.31114283 -0.14112322 0.08259516 -0.4996147 0.24037454 0.16482 -0.0537733 -0.13976981 -0.07026241 0.21973385 -0.41671795
614 0.014467598 -0.16460757 0.47484457 0.10927596 0.16200615 -0.0779138 0.035793673 -0.44718945 -0.28774244 0.30224282 -0.41692758 -0.48325732 0.28724757 0.11868924 0.4329284 -0.033863783 -0.10837265 -0.13677679 -0.18720174 0.30163512 -0.25761846 -0.41677696 0.07615229 0.12408801 -0.15241519 -0.38542926 0.35364285 0.33025292 -0.19260058 0.34602192 0.04477203 0.57261443 -0.11999126 0.10466233 -0.07022056 -0.25650942 -0.35948926 -0.0655009 0.27158117 0.20861298 -0.1954847 0.027325833 -0.17380919 -0.20030005 0.39268872 -0.07210372 -0.26758322 0.026472792 0.51303923 -0.28260165 0.25492042 0.0648596 0.21534751 0.11243701 0.15412748 0.11931838 -0.3611362 0.15454824 0.23385681 -0.3791933 0.102389984 0.11922044 0.36597958 0.00851586
430 0.09286912 0.41862053 0.3531953 0.359355 -0.0020170726 -0.5392124 -0.19940533 0.1412931 -0.052939303 0.055071685 -0.49318653 -0.39373514 0.14572647 0.071706444 0.5095436 -0.2703393 0.018539047 0.1318103 0.40149006 0.1276366 0.0847097 -0.09430532 -0.32875633 -0.11851615 -0.03152211 -0.06436168 0.060579866 0.39951986 0.35634455 0.07448421 -0.34346703 0.33845308 0.085959755 -0.028108621 -0.29592365 -0.29867563 -0.31574684 -0.08087273 0.17085604 -0.0021370589 0.0005507681 -0.2052396 -0.00025488634 0.17656736 0.293879 -0.09793397 -0.055908553 -0.37604606 -0.16247436 -0.53539675 0.038055714 0.076403715 0.22234996 0.20865831 -0.07744359 -0.23319511 -0.5147137 0.14127508 -0.5519774 0.24297392 -0.4547681 -0.06626922 0.29032612 -0.30168062
809 -0.16307195 -0.36684775 -0.03680485 -0.22021754 0.19596747 -0.24512863 0.13530351 -0.47288626 -0.63910997 0.10129999 -0.2807133 -0.43295658 -0.1236031 0.14068443 0.27550793 -0.35336715 -0.131654 -0.29907715 0.15539628 0.34909615 -0.2075328 0.5165029 0.019608889 0.011546782 0.5951055 0.4530595 0.12170285 0.3646088 0.06055915 -0.19187382 0.0658229 0.04181764 0.3883156 0.4501199 0.29561883 -0.16655809 0.019745303 0.070638254 0.123732306 0.1468425 0.28087926 -0.27259657 0.18431216 -0.2997807 -0.3421176 -0.034937277 0.17898539 -0.0101221055 0.07167407 0.15690523 -0.30169585 -0.30515847 0.45031172 -0.1476051 0.23466022 -0.017677736 0.07924578 -0.42525247 0.14961861 -0.47276005 -0.119579256 -0.17469448 -0.0148406755 0.016454916
494 0.38810864 -0.12329452 0.6958464 -0.072971396 0.0137272 0.047064226 -0.08273651 -0.16499603 -0.66018987 -0.645009 -0.10534878 0.009129072 0.53828996 -0.033438794 0.10148662 -0.1963167 0.12197221 0.33852738 0.32286903 -0.14133376 -0.061710134 -0.043810375 -0.30786902 -0.0058011673 0.33873054 -0.46522847 0.43683156 0.15088321 0.08671396 -0.33257145 -0.31451443 0.35551703 -0.689409 -0.045083 0.43034285 -0.3921847 -0.001855008 0.13859637 0.31008434 0.2616645 -0.056128487 -0.07542761 0.051294774 0.02848849 -0.038298313 -0.090123214 -0.15836167 -0.527739 0.07433069 -0.180403 0.18892556 0.24468994 0.21996139 0.15726508 -0.030454433 0.13828538 -0.5216679 -0.14904237 -0.048516296 -0.1340605 -0.01513048 -0.10901799 0.1171613 0.021475295
1276 0.018729726 -0.5452532 0.290133 0.027508745 0.4431189 -0.1541314 0.075469 -0.29018313 -0.28493372 0.121570766 -0.27895197 -0.17415969 -0.10658451 -0.13251777 0.06131444 -0.39811447 -0.25514543 0.017072607 0.17148066 0.38744378 0.27793 0.3831729 0.4817053 -0.005127692 0.25042456 0.3087346 0.6269805 -0.007075442 -0.4750464 0.07233853 0.27582002 0.09637024 0.6343307 -0.018176062 0.25198653 0.14735405 0.11020189 0.43812907 -0.4809683 0.018549591 0.25656638 0.15352055 0.20729876 -0.18469924 0.22179343 -0.16014753 -0.08037896 0.002269127 -0.31914833 -0.2860046 0.09635186 -0.115781136 -0.44023854 0.10273001 -0.14079191 0.039249577 0.085697584 -0.55972445 -0.16545258 0.097840644 -0.18649873 0.42754805 -0.16214022 -0.046743616
764 0.19815001 -0.028912809 -0.016675197 -0.42009652 0.29138747 0.044541422 0.15126629 0.14042747 -0.11361507 0.016409218 -0.21470492 -0.34393632 0.041548412 -0.17156042 0.15364777 -0.18967065 0.06885777 0.049365375 0.12872963 0.30973136 -0.14046526 0.049025066 0.018721417 -0.10072165 -0.08001263 0.2341656 -0.03179505 0.065962136 0.25796837 0.3119566 0.0026354291 0.25415602 0.52979577 0.3250002 0.08014745 -0.34036613 0.18334867 0.15605135 -0.286303 0.16060086 -0.33490878 0.18842012 0.112824716 0.103350334 -0.036476817 -0.09157595 0.089021884 -0.084569804 0.31783926 -0.31102556 0.249337 -0.08444462 0.2686327 0.32565257 0.2598186 -0.18632066 0.3274689 -0.25303453 0.02373069 0.39185238 0.075108245 0.28921095 0.00721937 0.17608757
590 -0.04812383 0.028847897 0.691034 -0.17467329 0.1960376 -0.27337715 0.043603357 -0.22153208 0.00622069 -0.11526928 -0.2533151 -0.23592414 0.14705445 0.37175813 0.44818956 0.017493362 -0.2235998 -0.23977149 0.14095615 0.2843149 -0.08737123 -0.5903487 0.16460933 -0.06808732 -0.2792394 -0.32931477 0.359336 0.23784499 -0.07125092 0.0077100517 -0.16463453 0.20595564 -0.065193646 0.3599068 0.42323497 -0.37639484 -0.035200242 -0.16425456 0.62743294 0.14175765 -0.03639914 0.19200756 -0.21123116 0.0056509636 0.2978588 -0.23319422 0.31831273 -0.39470208 -0.39746028 -0.23878379 0.060747024 0.53610885 0.01997583 -0.2039613 -0.1291655 0.019093307 -0.4928979 -0.030854696 0.09234762 -0.061223574 0.08734516 -0.12778856 0.20228054 -0.26170656
952 -0.18834046 0.23331255 0.26242772 -0.19175057 0.23725386 -0.1848283 -0.0048980466 -0.1701733 0.15090811 0.051004037 0.14112954 -0.20932554 -0.17511566 -0.1344991 -0.025192257 -0.40840602 -0.009118307 0.14899956 0.5913479 0.28633833 -0.11216928 0.1549473 0.221462 0.0021414484 0.110174924 0.017417112 0.38028806 0.43407357 0.29112726 -0.076193295 0.08502854 0.09428501 0.48090678 0.19301221 0.2877014 0.28629437 0.37455115 -0.03827768 -0.40041518 0.38901138 0.041899245 0.10859384 0.17215104 0.10279903 -0.16239662 0.01930871 -0.20650138 -0.28512633 0.32503182 -0.123626806 -0.07844221 -0.6444976 0.18979073 0.056628555 0.07420594 0.17800964 0.34582153 -0.1375429 -0.23322316 0.31193647 -0.1935587 -0.04538595 -0.041585494 0.3837546
1007 0.35138065 -0.121516295 0.25637448 -0.4242587 0.7140193 -0.0034338431 -0.18365128 0.12548892 0.10379566 -0.6311174 -0.18204065 0.051163573 0.016223624 -0.41972467 0.64089537 -0.43469232 -0.14171615 -0.21616536 0.043948904 0.38201207 0.44777972 -0.39543164 0.25029615 0.18347728 -0.22131304 0.25706586 0.16417572 -0.29504526 -0.19245444 0.24896762 0.60695803 0.43464357 0.69026244 0.21449551 0.65513825 0.073758565 0.16086581 -0.08475044 0.008961657 0.20968609 -0.21523508 -0.11880078 0.3052656 -0.48259985 -0.11114873 0.21403873 0.17652155 0.06037736 0.20286308 0.18502355 0.3762285 -0.1797402 -0.32181394 -0.35805902 -0.18963452 -0.27752972 0.39465752 -0.4966181 -0.20093857 0.14271852 -0.5317313 0.26547655 -0.32980865 0.39359286
287 0.1822048 -0.13867833 0.47937104 0.32054362 0.05234877 -0.09442015 0.113487676 0.09484759 -0.2334443 -0.37800044 -0.18763189 -0.62086797 0.09946036 0.2716323 0.12116288 0.07745165 -0.24634357 -0.16677152 0.32831055 -0.11874383 -0.35017294 -0.2472801 -0.042204946 -0.101440065 0.037931666 -0.49314374 0.24139622 -0.21426526 -0.39700192 0.09027664 -0.31292427 0.40836066 -0.21831359 0.3943052 0.4535221 -0.48519376 -0.115644746 -0.26354477 0.22548087 0.22786556 -0.07623929 0.18503982 0.06234008 -0.1936375 0.28507087 -0.37404743 -0.31827423 -0.35437125 0.10938247 0.079882264 0.1393836 -0.0072712153 0.41957006 0.26361346 0.052533384 -0.08543717 -0.16048716 0.4071581 0.11679961 0.23739165 0.021254761 0.13657641 0.25921834 -0.06657972
1130 0.605139 0.36735728 0.18330875 0.47845307 0.85970974 -0.53815156 -0.3222755 0.04259529 0.35976204 -0.46350503 -0.47321472 0.014055854 -0.17722099 0.05258834 0.06875664 -0.02969002 -0.66566014 -0.17248824 0.30062735 -0.15896325 -0.25598362 0.2464848 -0.22972824 0.07633958 -0.060973506 -0.4448712 0.59179664 0.28869098 0.287988 -0.22726518 -0.2687882 0.46009776 -0.32032144 -0.31475437 0.5683375 -0.19558482 -0.2569123 0.2937525 0.22263469 0.2547346 -0.43417156 0.28462288 0.5589581 -0.054185785 0.18474141 -0.43377927 0.4737926 -0.026578616 -0.40273702 0.05473473 -0.13958299 -0.2197474 0.2683202 0.17291287 -0.036440272 -0.08576431 -0.46269518 0.32458407 -0.58300495 0.16416845 0.15383457 -0.32880437 0.21852624 0.109352656
489 -0.37860215 -0.08855648 0.5681558 -0.17982417 0.006461769 -0.38841626 -0.18907379 0.322989 -0.34448686 -0.20881021 -0.29233986 -0.057520006 -0.16967566 0.1660207 0.59561324 -0.5859358 -0.49467194 -0.0075993687 0.032548256 0.2207456 0.2760186 -0.011903862 -0.0105919745 -0.24752492 -0.19359536 0.20773546 0.11763817 0.10821667 0.079459526 -0.010599032 -0.13166004 0.27210385 0.124199726 0.1489625 -0.07207081 -0.371774 0.2958831 0.20192805 -0.39964843 0.031806014 0.22416674 0.32879195 0.09199171 -0.008542691 -0.31437457 0.105753936 0.12785983 0.20932922 0.017596072 -0.24954964 0.20211813 0.051158383 -0.23005746 0.4184352 -0.1122986 -0.5125602 -0.1182627 -0.16698557 -0.13018371 0.14845622 0.49587652 0.11547186 -0.09354469 0.00965326
674 0.12520608 0.33777782 0.1337183 -0.048984263 0.40966356 -0.32537755 -0.025880476 -0.14223585 -0.001885541 -0.52015424 -0.06526287 -0.31030628 -0.04793723 0.39968008 0.45634207 -0.30434024 0.084904686 0.18129928 0.04905291 0.017145483 -0.34118912 -0.102171235 -0.39056328 -0.3196961 0.07973406 -0.6690395 0.0010462864 0.060306717 -0.114517964 -0.17258044 -0.15037689 0.28783318 -0.107658125 0.117923506 0.019705163 -0.49921167 -0.21848729 -0.16686293 0.19149294 0.23763727 -0.21213436 -0.09715315 0.052385364 0.21998096 0.05291884 -0.22011025 -0.12180656 -0.42153114 0.23234597 -0.25781968 -0.0070166863 0.013167067 0.43351805 0.07588384 0.06952346 0.51576495 -0.39716315 -0.021196397 -0.08090174 -0.019401653 0.1640131 0.19540754 0.13585536 0.06915142
1062 -0.15203388 -0.20481189 0.23899214 -0.10178735 0.33370864 -0.054513577 -0.019998454 -0.1496262 -0.37870863 0.2762988 -0.51547235 -0.40022495 -0.11725242 -0.11321034 0.3787397 0.18730007 -0.05936919 -0.007432132 0.18420318 0.41646847 -0.055986356 0.072602496 -0.33375362 -0.41039607 -0.11568422 -0.1594301 0.4127268 -0.05911586 0.44896168 0.4847074 -0.2546596 0.008561198 0.32061192 0.44737113 -0.12029266 -0.14316303 0.29069224 -0.078965686 -0.17857017 0.17633161 0.22988194 0.018063841 0.15256906 -0.113288745 -0.17324257 -0.12837104 0.26491943 0.19120304 0.06880792 0.1390579 0.029796999 0.3393077 -0.09569055 0.33293337 0.42691323 -0.18047717 0.21064842 -0.3164503 0.09070162 0.29514256 0.10593701 -0.141012 -0.09807426 0.031659517
1214 -0.08947934 -0.46265 -0.16431937 -0.23759314 0.5517439 0.31939828 0.30844614 -0.40851218 -0.4778352 -0.26738796 0.13731451 -0.13601772 -0.38705662 -0.3580185 0.6527955 -0.5016314 0.12865107 -0.627861 0.03721193 0.29183635 0.06614225 0.20074359 0.5043518 0.17162003 0.27120855 0.077043116 -0.31741178 0.124782324 0.21023853 -0.20410298 0.43408218 0.2837156 0.10425739 0.16485092 0.54530907 -0.05233519 -0.20944159 0.0568835 0.2231535 0.38158438 -0.15564893 0.29220024 0.13801865 0.11239638 -0.30394152 -0.47959822 0.1662429 -0.37489402 0.49322307 -0.014715077 0.037413538 -0.3707391 -0.26373816 -0.2827706 -0.33856225 0.13702643 0.4709328 -0.39345807 0.037232492 -0.45183903 -0.052762985 -0.4176605 -0.2651717 0.029393105
1151 0.019406252 -0.01219965 0.012445841 0.012226483 0.11401389 -0.10474636 -0.019365627 0.28237814 -0.5426809 0.008967666 -0.44695604 -0.34675956 -0.23756945 -0.35278162 0.08278964 -0.362021 -0.22912623 -0.3220923 -0.08896716 0.46258593 0.17368595 0.18148308 -0.07680875 -0.21901833 0.06398694 -0.22039798 0.07182238 0.31503478 0.5215411 0.33271837 -0.22757463 -0.0059320093 -0.09396228 0.59270173 0.35043332 0.055204548 0.1407037 -0.008616675 0.1145874 -0.029416645 -0.09674225 -0.29061276 0.28837782 0.3315675 -0.2985536 -0.0468308 -0.05198996 -0.013959645 0.332426 -0.57522905 -0.13759053 -0.01564903 0.04420494 0.5043153 -0.01094527 -0.102581665 0.30181134 -0.50296795 -0.016948916 0.13875367 0.11708516 -0.23167966 -0.06507796 0.052848782
884 0.10852343 -0.26318392 0.17830352 -0.4051313 0.40316704 -0.44878712 -0.07438175 -0.29960966 -0.40390968 0.47603425 0.17302307 -0.30177543 0.46654278 -0.012484272 0.17276873 -0.21580319 0.03784133 -0.13508342 0.08811887 0.29773706 0.25323725 0.17466182 -0.34303135 0.0011116924 0.4313018 0.41416526 0.31999624 -0.037769042 0.2615769 -0.22099572 -0.15214382 0.17912187 0.38904887 0.5250384 0.20277539 -0.4321959 0.18567424 0.31474873 -0.033802763 -0.010018708 0.032311525 0.14334284 -0.03072659 -0.274725 -0.1355533 -0.097268306 0.17409909 -0.2595429 -0.07777619 0.42971644 0.31736413 -0.37093586 0.072408006 -0.077375844 0.29789722 -0.11497277 0.31115106 -0.5990675 0.2530225 -0.34601468 0.24314222 0.06776742 -0.26367992 -0.20741187
1171 0.11343518 -0.052869562 0.31360513 -0.4749806 0.38935596 -0.3593975 0.019910432 -0.29804298 -0.10713194 0.1688693 0.07615337 0.10547115 0.10826043 0.15236813 0.52586275 -0.41256875 -0.03031581 -0.45769045 0.41039184 0.12892379 0.21760648 0.2803453 -0.24951765 0.295455 0.6903833 0.2729219 0.2491777 0.43715653 -0.02417676 -0.03685611 -0.24582775 -0.09744676 0.38724276 0.29374406 0.33203685 0.60376173 0.15742064 0.109913416 -0.16013318 0.15792158 -0.27172524 0.14164568 -0.0060766926 -0.30479586 -0.2172756 -0.11886265 0.4250597 -0.2772414 0.19480446 0.37502494 0.037327625 -0.3446065 0.23522994 -0.20241174 -0.20312744 -0.10700744 0.55125207 -0.3771693 -0.18911387 -0.005001527 -0.18294638 0.03405638 0.3183529 0.111789316
84 0.026357748 -0.067743264 0.22564344 0.5326754 0.10649281 -0.18202452 0.46514234 -0.063976206 -0.22889237 -0.58555543 -0.356742 0.1854314 -0.27284312 0.22850333 0.5641202 -0.28096595 -0.053530738 -0.112616174 0.067808114 0.20519547 -0.35166168 -0.049593005 -0.038832597 0.022292346 -0.13911977 -0.4387814 0.036494453 0.07045239 0.040943783 -0.264362 -0.6969861 0.16440976 -0.009327999 0.42222124 0.4294488 -0.93391573 -0.18912537 -0.15625781 0.35122347 -0.12735797 -0.5418369 0.046979256 0.099643335 -0.98732114 0.69696814 0.15617833 0.024760844 0.22599402 0.19507802 -0.08946976 -0.22251482 -0.18604097 0.14014083 -0.48963886 -0.20266359 -0.21382757 -0.2734156 -0.17809923 -0.61869675 0.57880867 0.42067254 0.017958596 0.5528142 -0.4186554
1407 0.25130293 -0.06373768 -0.03451242 -0.124738224 0.21047439 0.5088804 0.2438141 -0.120035246 -0.25789523 -0.09938274 -0.3522357 -0.6269782 -0.20487879 -0.55619794 0.23879144 -0.2974974 -0.14309694 0.027945513 0.33795583 0.073017105 0.12289434 -0.02665647 -0.31022668 0.34001786 0.18194212 0.44394642 0.47000912 0.35262585 0.33288932 -0.109525576 -0.26042512 0.039032545 0.3205019 0.47599718 0.16326869 0.12843159 0.045194462 -0.26086083 0.21385108 0.16144025 0.38158923 0.5590854 0.10228223 -0.20246911 -0.15173858 0.1530146 -0.07046492 -0.6482352 0.7165489 -0.15769486 -0.62308 -0.3562329 -0.42682394 -0.12073604 -0.35604817 0.27428728 0.37060213 -0.078499414 -0.09601041 -0.38737872 -0.36741826 -0.19911951 -0.28019392 0.1831659
675 0.14099115 -0.027503232 0.4247412 0.2735891 -0.018858152 -0.38343412 0.029679328 -0.3220806 -0.32374564 -0.10832032 -0.167113 -0.29294458 -0.037501846 -0.23397036 0.45934266 0.2223653 0.3038829 0.048957173 -0.029499494 0.27396405 -0.081872374 -0.15219057 -0.29341614 -0.23675106 -0.09151695 -0.34664857 0.42945293 0.12081295 -0.036284845 0.3176792 0.44780305 0.14585364 0.088336594 0.26656988 0.20422691 0.020589264 0.18894097 0.054292176 0.25828966 0.072736196 0.23407151 -0.024128115 -0.1770746 0.008926755 0.013673164 -0.4565347 0.22264995 -0.2092296 0.24340995 -0.21278305 -0.042626996 0.3063931 0.16536668 0.21962738 -0.15142296 -0.021930331 -0.30765387 -0.12397296 0.17636241 0.025734602 0.3696616 0.020873873 0.39568916 0.03235491
573 0.079289354 -0.17865132 0.99077183 -0.20605315 0.48107398 0.35530213 -0.19326696 -0.24402677 -0.20248659 -0.18110144 0.15023604 -0.11845718 0.383083 0.24048957 0.2514697 0.28226385 -0.018789368 0.10880358 0.44375893 0.13960679 -0.3877163 -0.0527988 0.14247374 0.12300274 0.42154235 -0.25459287 -0.0056122304 -0.056855373 -0.103201926 -0.35838127 -0.47331214 0.38054064 0.21758287 0.3859885 0.17206427 -0.21285231 -0.47904995 -0.07361819 0.26915872 0.27972347 -0.36152604 -0.09561711 0.40125296 -0.063744895 0.21508123 0.04647025 -0.055550694 0.1829766 -0.12912339 -0.24197674 -0.52714705 0.35585436 0.3816513 0.29723737 0.3572546 0.22267973 -0.51407313 -0.14978468 0.1638923 -0.4075617 0.28244966 0.044925887 0.1626474 0.14211436
1328 -0.02199834 -0.1361617 0.37030005 -0.12471606 0.16388223 -0.19096069 0.18271646 -0.15773265 -0.23730661 0.28854835 -0.078272775 -0.23501351 -0.15672027 0.08916393 0.3020744 -0.33164528 0.21976742 0.23038758 -0.113418 -0.010377244 -0.1862437 0.22961436 -0.10085956 -0.0888029 0.24940883 -0.28939652 -0.054521557 0.20126727 0.27686125 -0.026561597 0.040432263 0.2476448 0.25089324 0.34221992 -0.14906426 0.013531284 0.011709891 0.108347654 -0.5722809 0.21292673 0.16210379 0.40094405 4.9566595e-05 -0.15577662 -0.19508894 -0.072939284 0.16039443 0.019458637 -0.01998857 -0.53992826 0.19014044 -0.37389526 -0.080309965 -0.023722354 0.074342534 0.26260757 0.11808198 -0.44876832 0.22048356 0.5936631 -0.2580509 -0.068185456 -0.22699022 0.28353196
563 0.82524544 -0.14510016 1.0090865 0.0007053288 -0.10886843 -0.03713231 -0.33374622 -0.19264618 -0.44366506 -0.5795165 -0.52103466 -0.29441923 0.4200395 0.06398876 0.11445887 -0.15261026 -0.75167286 -0.3056128 0.2786523 -0.015197033 -0.061283465 -0.38714597 -0.09071089 0.30330977 -0.22988239 0.07844225 -0.07506917 0.38840458 0.6626204 -0.33315757 -0.6245853 -0.1336974 -0.37100545 0.34862718 0.034476276 -0.19597122 -0.1751919 -0.2019046 -0.021516507 -0.4670028 -0.09012383 0.19879949 -0.178107 0.1468911 0.25080237 -0.563017 0.4712738 -0.19287202 0.055965845 -0.6844619 -0.12422946 0.12008485 -0.20584957 0.19696635 0.06814896 -0.0039485423 -0.42520744 0.087272875 -0.12897596 -0.13747904 -0.08369929 -0.29116002 -0.01888633 0.2813852
393 -0.08716631 -0.25377566 0.45399544 0.19369549 0.24924216 -0.08077143 0.2943515 -0.06998254 -0.4527147 -0.20671503 -0.1826014 -0.24267302 0.21023807 -0.16976249 0.10650894 0.09960871 0.09568929 0.020564064 0.2065461 0.10072655 -0.25229874 -0.13248311 0.15121894 -0.108166076 -0.0145256035 -0.37498423 0.21202908 0.3141801 0.21849652 0.29459023 0.09659669 0.28500354 0.03876975 0.11752144 0.13723403 -0.16404812 0.20499477 -0.08156119 0.20134011 0.4689488 0.0012619664 0.16986327 -0.30882967 0.16534795 0.3094116 -0.33987775 0.2877689 -0.3042556 0.28445056 0.20597313 0.24788588 0.33239686 0.31807354 0.5142626 0.109060004 0.20164484 -0.21562414 -0.053009246 0.105569765 0.118949756 0.17965169 -0.2489957 0.023682792 -0.34488103
